2571 100
' -1.4251729 -0.599558 -2.6198227 4.314701 2.1040604 2.8305202 1.0258752 3.6324887 0.19888434 -2.7675033 -3.5289264 -0.0016829576 -6.361775 0.67680454 1.6364279 -3.7778862 -1.7017614 4.008514 -2.3466923 -0.2795573 -4.8357105 0.9259276 -2.4769447 -2.4589458 -2.942459 -1.2610049 0.9761032 0.5190975 -1.8414891 2.3639069 -0.6719905 -3.1548734 -2.2294266 1.0756016 -3.8702443 0.89983076 -1.9114832 1.5334028 0.7220648 -0.97420204 0.2192161 1.0030581 2.8408496 -2.556368 0.68362266 -3.0144863 -3.9525504 -4.4516106 1.3660036 3.4894736 1.4562413 -1.6611767 -4.2499533 -3.785955 -1.3201716 4.095621 -3.4207919 -1.6742017 2.821769 -4.617919 -2.3251588 2.4627755 -1.7110344 2.9576237 2.5739088 -0.95201266 0.8427264 1.7380933 3.8092766 -2.7600508 1.344566 1.414083 0.86716104 -0.63486576 3.8715422 0.7334358 -1.8282045 -0.94967985 0.58173764 -0.72016877 1.0891567 1.5309528 -1.382612 0.019482963 -3.2319705 0.5749225 0.623279 1.7205554 4.584667 0.3954614 -1.6775095 -0.25033817 0.99566096 2.3786664 -1.222479 -3.6476657 6.223773 -3.8367639 -0.7219965 -1.0859642
the 3.4672022 -3.9849524 1.6348529 10.116544 0.89984846 -2.3072557 4.3606234 -6.200276 -1.2268648 3.9714627 1.0099272 -1.184541 -5.7423606 -2.333163 -2.009962 -4.8177576 -0.35981542 0.5538493 4.140571 1.2190431 2.1047587 -4.1554866 0.27981338 5.64422 -1.3246595 0.13233204 -2.907447 -3.1035955 -1.5841861 -14.884764 -5.509333 1.8607203 0.7194663 -1.7764136 1.4191209 -0.6218206 4.5990186 -0.47414017 -2.1547253 -0.5990628 -0.29888386 -1.0898911 -2.6850157 -5.5999827 -2.176419 0.39127156 -2.3830123 -3.6226609 1.3550537 -0.027097456 -0.24806397 3.3060024 3.0509024 0.7671813 3.6497428 0.3062372 -0.5865117 0.61357343 -0.27871713 3.5416367 -6.6306577 0.26965672 -1.6183803 -2.4593341 -2.6453245 3.3797503 1.0131869 -0.4884533 -3.0630233 -2.2182817 -0.37565798 -0.8026244 5.3471465 1.905497 -4.489369 2.979361 1.1207134 6.3036437 0.35800678 0.8282441 0.0011744518 1.4176533 -0.91392344 0.46100283 2.953186 5.616919 3.1241786 3.5337517 -5.7553396 -6.012267 -0.65118444 3.547905 0.5651417 -2.1727967 4.112698 0.2368047 4.655656 1.6648153 -2.4662914 6.266832
and -2.4768975 -4.517772 -0.058066994 2.7819195 3.5509005 -4.114218 -4.5426507 0.41066208 2.0211933 -2.7821875 -5.647306 -2.93319 0.17432997 2.9918566 1.4897195 -2.829454 6.4171166 1.2936145 1.9157858 3.1761734 -1.4532478 0.6245192 2.0993648 0.4863049 -1.3402312 -2.9558544 -2.6254456 1.2582006 4.529478 4.4013333 -1.4686522 5.4523726 4.203727 -1.2080977 -2.0300224 3.6980321 3.4298065 2.871298 1.8475815 -3.0562406 -5.990643 6.650178 -2.3758214 -3.3735063 -2.3733983 2.5106847 -1.136676 2.8715093 -3.2496414 -1.1903821 -0.7987189 1.9040294 -1.1271716 2.6168928 -3.6942437 -2.7354307 4.0003095 -0.73867273 -3.3194778 2.421917 -2.923011 1.4881397 4.13957 -2.9244251 -2.4972432 0.5141972 -1.8195091 3.1197743 3.2339792 -2.0752256 4.966666 -3.5527787 -3.6865845 -0.35643226 -1.5822748 -5.832307 -4.7179904 -2.174804 -3.9833088 4.084821 0.9229942 -3.9578767 1.2163763 -4.452755 1.4570622 -0.82319665 5.378881 -2.1288939 -1.1104605 2.5287094 4.213163 2.8648815 -4.516646 0.66382307 0.6535242 1.0713922 -4.148065 1.4968482 0.33721924 -0.5236864
to -2.439947 3.1993308 -2.7276702 6.455239 1.3763416 5.5887585 0.37577096 6.883168 0.86339533 -0.44815618 2.3554978 -1.9663113 -2.9681175 -2.4676754 0.57643664 0.96246 -2.4858027 -4.421461 -0.8838633 -3.379343 -5.6799917 2.1005464 2.7835326 0.6560159 4.2653794 0.14275588 -1.4604493 0.57090014 -1.5350643 2.6781242 -3.669378 -4.1202755 5.1920633 -1.5994289 1.1798291 -5.4384203 -1.1824682 -1.7816485 3.1413774 3.3508546 1.7726847 1.1397877 1.7946895 1.4459399 -1.9992604 -4.7556133 -1.2642078 3.1513443 2.8769965 -3.7438252 4.0371923 -0.19222024 2.0662298 -1.3928592 0.7351661 3.4354672 4.9736714 -3.3616002 -0.20995861 -4.4191813 -0.73900735 -6.197702 -1.5845933 -4.6873746 -4.592749 -5.588195 -4.7931123 -5.0574517 -4.925274 5.5096793 -1.710755 1.02494 -3.994387 -3.1355348 5.3306313 5.3813076 -0.8417436 -3.3310895 -0.3553296 0.5871048 0.97933584 0.8616177 -0.83390987 -4.776873 1.835418 1.9289978 -4.460622 -3.8926291 -4.1958246 0.10987377 4.297553 3.6762822 -3.0731194 2.7318892 -1.1648017 3.005079 2.6680307 1.4605076 -1.4090346 -0.43226278
a -1.9427861 -2.0289314 5.3803134 6.7674866 -0.5692166 -0.96611243 2.6696424 -7.8393846 0.5948026 -1.5707905 3.370287 -1.9003383 -0.3756109 -4.8388267 -3.3987825 -1.0693797 -1.5549083 3.1487944 8.159608 -2.4101458 1.6806517 -4.7590075 1.2138526 -3.2421691 -1.0541672 -3.8218322 5.5286617 -3.1937962 0.20151088 4.2312713 4.4397225 -2.9477892 4.036881 4.872178 2.0424302 2.606592 -3.286664 -2.5069082 -2.6327937 -1.078988 -0.23924689 4.4184117 0.65424734 -1.0470881 -3.027111 3.1485682 5.1381574 -1.4092503 -2.3765752 -0.7969732 -2.6921945 -2.695483 -4.0897694 1.0834078 4.6476526 3.8118849 1.8729304 3.5929513 3.5671742 -0.8277835 1.111879 0.8440984 -2.7637777 2.7384877 1.2603621 -0.41987354 -1.3230454 1.8935176 0.6585866 6.339393 0.054329533 -0.26768094 -0.34521815 2.804011 -2.3901596 3.2734118 7.5068846 -3.1555402 -5.3207355 4.8672442 3.5600739 -1.7152197 5.361726 2.0516994 4.8997407 -1.0233991 0.94590324 5.196686 -0.8559598 -6.828838 3.5089154 1.1757076 -2.82776 4.331153 -2.8064532 1.8457366 -5.1160874 -4.033347 3.2518795 5.0448036
it -2.3740528 -2.777147 1.3047662 3.3230307 -2.6252627 -0.6807077 2.765117 -4.3437266 -2.6580505 4.914451 3.8143156 2.7644424 2.9464672 -3.4696884 1.6658747 3.71716 0.24160562 0.4991099 1.8455546 -3.0110195 -0.71342474 1.2438713 -2.281725 -2.0743196 -1.5645832 0.3271658 -1.164097 -0.25659207 0.94973665 5.704186 0.983158 1.1940328 -2.8319044 -2.2788227 -3.3971024 2.433325 1.2476282 -2.3548381 0.6548501 -3.262501 2.4292495 -0.09885949 0.2003182 1.3353461 -0.7340664 0.7501617 -0.8750345 1.8960445 -2.581125 2.2305348 3.0231886 0.8984336 2.1660566 -0.8419607 -0.70177436 0.48995277 -0.8136217 -1.9955181 -4.3506026 -1.860571 -4.990591 2.5583417 5.4060755 -2.0291786 1.5302651 2.2319996 -4.817541 -4.3890343 2.3697288 1.8471354 0.7676856 -3.3616765 -0.18387431 -1.7010792 4.3720036 1.8997953 -2.1061668 -3.056176 -4.098531 0.15398529 -0.55019444 1.0551106 -1.825349 3.150411 -2.3558967 4.048788 -1.5174588 -2.5712235 0.17404363 3.0427816 1.0195575 -2.9980283 4.56442 1.5805997 -1.3178453 1.6549908 3.8786697 -0.11769335 2.1355546 -3.5953476
she 3.598422 -2.071014 6.4172387 1.6308315 1.4781162 -2.5069947 -1.828532 0.1448371 0.091313794 -3.0219564 3.6733568 2.0433104 1.5824342 -3.3712282 3.181559 3.8413043 -1.6542591 -2.2201378 -2.1314974 -4.020587 3.4150834 -3.9856663 -0.31735668 -2.05097 -0.3884966 1.9953458 -2.439181 -4.369458 4.195028 2.9200737 2.100768 -0.10351456 4.193916 -3.777229 1.3213509 -3.9733396 4.436876 1.9012064 1.8529583 -1.7907629 0.9554537 -3.0449016 -1.8978394 0.026915064 -1.0161775 2.5325415 -3.6419804 -0.5518961 0.46171957 4.58012 -5.50651 0.19414543 2.2440224 2.7913706 -4.2055454 -3.9789371 2.5758274 -0.821061 -2.8640618 -2.6254668 -3.3470674 2.719299 1.5981483 2.7294223 3.2632954 0.39725408 -4.1556864 4.7682133 -0.6777505 -3.3569114 0.24994524 2.4959176 -3.3063197 1.7058706 4.315337 3.3455791 -1.5450846 0.14743346 -0.92803186 1.8266809 2.677157 2.5007215 3.3213315 -2.4561045 0.91886973 2.3810287 -1.6177497 -2.2499926 2.862468 2.5366035 -4.0482864 -1.1523298 4.6009927 -1.6993507 3.6542938 2.3514934 -4.0714946 0.8795907 0.17257683 -2.0077968
i -2.2691813 -0.96551186 1.1574175 2.2378316 0.15659142 0.342508 3.401004 0.60402256 -3.9682658 1.4267069 -3.6234677 3.4413843 -0.9139286 -2.8502138 0.46404892 -0.21113056 -1.7849896 -2.0730946 0.7872626 -1.2348063 -0.6732272 4.11724 -2.9145248 -1.2837653 -1.8092747 -1.9887757 -1.5762417 0.693439 -2.3000815 4.277889 0.32884565 -3.3391616 -1.1186999 -3.3749464 -0.87629664 -4.849869 -1.1214124 3.056719 3.9996917 2.9859457 1.2473686 -4.118464 -3.5884218 1.714295 -0.10827893 1.2403266 -5.9340315 -1.6336676 0.38302743 -5.3090987 -4.0736604 -1.9710239 -0.45923582 -1.1522444 -4.0734296 0.18834212 -3.6491544 -0.9435794 -4.4817038 -0.41986245 0.9408157 -2.8957813 4.964445 -3.0161006 1.4917326 -0.56547016 2.1126585 4.8713193 3.2896795 -3.7953007 -4.411312 2.739484 -1.8845382 -1.3906997 -1.437744 -1.902113 2.8574789 -2.9553456 3.2977326 -4.266349 2.943155 4.3062277 3.9487236 -0.25564522 0.75513023 0.64890397 -4.0572653 -2.0537508 0.85624224 -3.0511527 0.12502338 -2.1027505 0.34848902 -2.8763287 -1.7185036 -2.3468568 6.9967484 -0.1104955 2.5037372 -0.3158838
of 6.184716 3.3241963 -4.7362366 2.6155005 -6.1162667 -4.344067 1.5641792 -5.539652 2.9700797 -1.9590156 -0.21617593 -4.1146297 0.81740785 -1.0234946 -5.059522 -4.889799 2.864779 1.0053824 -0.7027571 5.6968307 -3.7594266 4.4091372 2.1338181 0.4178718 3.9031541 3.2467911 4.793751 -0.54185057 0.6346284 -10.080329 6.7347436 -0.8458486 -1.3534254 2.9785848 1.9901768 0.2986054 -1.7168493 -2.7841687 0.88359547 -3.1548572 2.526384 -3.0038908 -1.9857646 -1.5718669 -1.6904049 0.30840987 5.426344 -2.793749 -1.002417 -3.9143832 7.493205 -4.2011604 0.8318156 3.781663 1.530574 -6.2391634 -6.168972 2.6343563 -0.41045597 2.3174324 4.0158725 -5.5958104 -1.541371 5.73391 -3.5858865 3.570495 3.087613 4.1155496 1.7343047 -2.8427198 4.9687066 -2.4755113 1.4577506 2.8281 -2.068561 4.2731447 -1.3926754 -2.2038302 0.61982214 -9.09282 1.8467969 -1.1557618 -0.9142105 -6.88509 -1.4460242 -4.554736 -3.880264 -2.9058037 4.4927254 1.9335996 2.9817805 -0.73227495 1.1158658 2.3211951 0.5102711 0.21563725 -2.4072335 2.3111396 1.9080265 4.7345967
said -0.561435 -3.7737396 -3.2214777 1.6618878 1.9062665 2.2649035 -1.9152688 -3.5580592 0.9116044 2.3067927 -2.772392 2.7825613 -3.1578171 1.7262902 -0.09629252 -0.34652832 -3.0248833 -1.1419563 1.8557789 3.4289322 1.4272333 1.038713 1.5956793 1.0218401 2.6191175 2.157293 0.24905029 -2.456395 -0.03164538 -2.2806494 -0.474935 -3.9371574 1.218949 -1.5609522 -2.1693957 0.9906697 -2.6642473 -0.09639808 -1.0949224 0.778553 3.0346448 0.77687746 1.6719829 -0.037086673 1.747367 -0.28333625 0.92404777 -1.924309 1.1530288 0.546213 3.1017454 -0.5183162 -2.5064516 -0.46298563 -2.5706222 -0.76097137 3.2735727 0.77945596 2.2642417 1.8880621 1.131367 2.4692879 -1.063637 3.5540075 2.0485108 -0.15639508 1.357316 -2.154345 1.9170706 0.54920596 -2.4919026 -2.1467025 -0.8363475 -0.35683587 -1.790042 1.0361407 -2.560038 5.1291456 1.5375575 3.137619 1.4154364 1.907642 -2.992409 1.3457866 0.046548605 3.8228037 1.9916915 2.0968072 -0.6720518 -1.1653658 5.114285 1.9282352 -2.1412663 -1.9305415 -1.3275839 -4.22256 -0.16290715 -0.018818073 1.7547404 0.33432612
you -0.5169962 -2.3672452 -4.1121106 -2.0756133 -0.9208455 3.2295375 -2.1574278 -0.531938 -1.9867737 -3.6805358 -0.7070473 2.0108118 -1.6844296 -3.4639797 -0.17979164 7.146743 -0.1705182 -0.50355387 1.2510877 -3.2353172 -0.44226652 3.0164888 -3.6821358 0.54327995 -3.8206582 0.22679287 -4.0633597 -1.3984159 -4.12792 1.669793 -0.30004278 -4.0309944 2.553083 1.9104042 2.549546 1.0876242 -0.6174658 -0.7892026 1.0852854 2.0117393 -0.34385657 -1.7201357 0.654753 1.0024147 -2.3847325 0.90318495 -2.5835886 -2.3034692 3.3644845 -4.3624196 -0.72725147 -4.102985 2.9691863 -2.1533434 -3.232907 -1.1465328 -1.2266161 -4.229615 -1.6460135 -3.6107886 -1.5065329 1.1624583 0.4930783 -4.736528 0.58965224 -0.32555673 -0.85564536 2.6189795 0.48213863 -2.0113757 -3.5367415 1.0798836 -0.42358115 2.604011 0.42225122 -2.2642913 -2.1653402 0.82692116 1.363277 -1.7208456 1.6390152 -5.7668457 3.0898714 -4.017139 -0.4891343 1.3278177 -1.8037565 -3.1366248 2.981136 -3.4340017 2.6105273 -3.1722124 0.25583687 0.6770332 -1.4507152 2.3206131 7.3272533 -0.82814604 0.27919385 -2.631928
alice 0.25772774 -1.830279 5.965422 0.2525745 0.4861522 1.400232 0.012469782 -5.8781724 1.3706267 0.94698405 4.3491664 1.197555 4.0526786 2.697558 1.486117 0.47159752 -0.34747544 -3.3984897 -2.7182772 2.312316 3.6534104 1.4824084 3.5670507 -1.0401493 -0.41399944 -1.4549285 0.34986705 -1.4825945 4.6285205 1.913639 -2.1459713 0.93746805 1.1762573 0.36779237 -2.2576725 0.05080963 2.7474442 -0.78866196 -1.5892551 -2.150391 0.8293424 -1.493098 0.49467143 -0.050930064 0.21869102 1.7034589 -4.1508923 3.6093829 1.8012568 0.71883094 -0.419338 2.28457 0.84237885 0.56711394 3.9671195 -0.8284456 -0.3637567 -0.67177296 0.49834022 -1.6550759 -2.4648845 1.9540246 -1.8389763 -0.39163232 0.48512313 0.47595552 -1.6268342 2.977738 -2.3871512 -4.0453143 3.8173757 4.805797 -2.4167185 -1.8728182 -0.26135466 0.08439456 -2.6067376 1.323528 3.0159695 1.7610034 2.7478669 4.944613 0.9113143 -1.4111254 -1.0672196 1.5885937 -3.1962678 3.8319137 -2.3741112 3.9730878 -1.4598109 4.1360354 1.96551 -1.4440662 -1.525149 4.3803406 0.8892193 1.1409692 -0.79608625 -1.2644476
in 1.362577 0.48299637 -0.26772642 0.7148113 -2.9984014 1.0099183 -3.2345805 4.582489 4.0807962 -0.28982726 0.13134426 -3.6476464 -5.213913 -0.8884815 3.7047203 1.5947983 1.2589724 3.5071805 -4.109399 -2.8091211 2.6818428 -2.55546 -1.8812598 5.6505213 0.9879502 0.8698013 -1.4412248 4.283065 -2.185039 0.03220505 2.341587 5.13907 -4.4896693 2.69559 2.6515615 0.91257155 -0.4501147 -0.72014827 -3.4542294 -1.993737 4.200826 -1.364623 -2.0571811 -2.4633155 -2.363394 -1.3372053 3.2833316 2.2056165 -1.5023822 -6.1932526 -2.2081246 1.9326575 -2.7667365 -0.121123895 -3.6046412 -4.542559 0.8024551 1.3069625 -0.23763235 3.811114 -1.0207728 -6.751386 -1.3972214 3.8841994 5.6293693 -4.7507124 6.343135 -8.375306 -1.4309894 1.3410809 3.3847578 -0.14981513 0.6842876 0.21644022 -3.7270565 2.7704995 -2.533656 -2.4382484 2.6098177 3.1216908 3.9121864 3.5584865 -2.597529 -1.3089323 0.21317458 3.1540394 5.0815077 0.9930999 -0.48200804 2.1750772 -5.4467897 2.7151015 2.0518086 3.396693 -0.8853647 1.4142433 -2.5405326 2.499874 -0.32974508 3.4701297
was 0.4474322 3.8405912 -1.9252222 -2.1845856 1.9424764 -3.191945 1.8872621 -0.58177507 1.8305067 0.3883916 -0.1461377 -0.78870124 -1.6924989 -0.8395563 -0.5873599 1.9928285 -2.3696518 0.33644983 -4.2380047 3.344035 0.74341935 5.0559006 1.7309799 -1.7166034 2.5657156 -3.503404 -1.5023512 0.6282647 3.660129 -6.663909 2.8709123 0.7580763 1.5124989 0.2681709 -0.26160476 1.1800743 2.8047066 3.6368535 -2.4523094 6.316401 0.042433467 -2.050287 1.1932033 -0.67321736 -2.544733 0.047538623 2.394289 -2.1330817 -3.393391 4.1612716 -1.8260041 -0.5943426 2.2873824 1.9792519 -2.3791635 3.616616 1.8119414 -2.603088 0.41480365 2.4548407 -3.3578913 -3.1094973 0.5455394 -0.18871419 -1.8482277 -1.0697 0.4323345 3.317739 0.93543315 1.6163088 -2.7935047 -1.6144092 1.3581752 3.4492865 -3.129075 1.6948987 1.6213148 -3.3844426 -1.3164604 3.1715786 0.027141636 4.4045897 -6.955958 -0.042012475 0.7963037 3.4507196 1.6719053 -0.9106085 4.070082 1.8258426 -1.292941 -1.2445406 -2.0116565 1.3261212 -2.245643 0.62509257 -3.8349519 -2.6224682 -1.7240449 0.9651237
that 0.5633827 -3.0410347 -4.2604117 1.3141476 -3.3644145 -1.7939014 1.1872499 -3.1786318 2.628088 3.259659 1.6642445 2.9209125 1.2902778 -1.4900725 1.2851216 6.0852857 -1.2517843 -0.77181304 1.7668378 -0.71361125 0.813152 0.68134665 4.558351 0.82917166 -3.141167 -1.0970545 -1.3205432 0.89730346 -3.7913535 -3.9969769 -0.3497261 -5.3196926 -2.3726203 -0.106086396 0.3546328 -3.339696 1.7758545 0.56140465 -0.03867886 -3.0914736 1.1379573 0.049476754 0.20828556 1.9630802 -1.7211283 1.8193346 -3.6000557 5.991077 -5.4661856 -0.94240826 -5.3248544 0.64941674 -0.76430255 -1.7094518 -1.5339998 2.6660705 -2.9743993 -0.035406545 -1.2147673 -3.2901635 1.7761637 3.5722494 1.1605061 -0.54034835 -1.6179254 2.7096543 0.54481816 2.943117 -2.3058584 -1.1313485 -2.4897594 2.94355 -2.2974927 0.30020463 3.5331612 2.4148598 3.41768 -1.6120445 -0.68107367 2.450841 -0.568453 -1.2054746 -0.0029723565 0.7276861 -1.261742 -1.9883692 2.0299733 1.5172713 0.71392906 1.1885563 -0.65396035 -0.038082823 2.417943 3.1729426 -2.3409462 0.5748239 -0.86336154 2.688562 2.7395387 -0.5954553
as -4.7586827 0.89284784 -1.4331982 0.6943196 -0.565769 -3.9123518 -2.1502407 -1.7302561 1.4949706 0.73850757 1.4246157 2.1067955 -0.5954295 -0.04743522 -0.9443431 -2.1322837 -1.4032954 -1.5033063 -0.65666544 1.405647 1.6421516 -0.2108379 -2.449911 0.56849885 -3.7718618 0.7635734 -3.357442 1.7963035 -2.6951005 1.2385292 1.4363933 2.1636672 -1.5300109 -2.6137474 2.2861383 -1.715461 -2.243129 0.5505421 2.2175944 3.333518 2.4001064 4.106461 -1.5807805 -0.8369184 2.7782388 -3.0539515 -0.85590684 3.8326023 2.7375298 3.039399 -0.85851955 -4.692567 -1.4393227 2.5159147 0.3800103 1.88483 -1.1104733 -2.4180534 1.1383016 1.81474 -3.9446337 -1.4790783 -0.684701 1.3189794 3.1330018 4.674132 0.84189606 1.0313909 -4.614972 -0.905262 -2.7591484 -5.49834 -1.4005125 1.3466222 2.2166014 4.779571 -2.72763 -1.512799 -0.097032145 3.2195992 -0.81931084 -0.578432 2.6341987 3.2835674 2.3174584 1.9053394 -0.5703416 -1.7242911 1.7704812 -1.5297482 -1.0702264 -1.0288637 -2.1275518 -4.4974976 -4.126694 0.5240993 -2.200652 1.9289931 -1.8183124 0.7567836
her -1.8614264 4.1000023 1.2829642 1.8726416 -0.35115358 -3.7928593 3.9179614 -1.0556445 -3.7399995 -2.601747 3.360357 -2.6711931 -2.0465653 -0.27425066 -0.6389534 -0.9870653 3.657989 3.5637846 -3.6524448 -4.0582004 2.8527222 -1.5228198 -0.04011316 4.0702376 2.6154344 -1.0187925 1.1159047 2.7702446 0.60059476 -1.47792 3.0891764 1.0411959 2.2023125 -1.9975816 1.212019 3.6123433 -1.1702563 3.9045968 1.4119079 0.044768427 -0.6391744 -0.21494278 -3.8961122 1.3446175 1.111146 -4.419938 4.795044 5.585377 -2.6661325 0.94614995 2.2688396 1.6240758 3.4596276 0.08389526 2.1142743 3.430992 3.131277 2.7434516 0.4855906 1.6014286 1.6714376 3.6937969 2.8659937 0.8654581 -3.4332466 0.22737098 -4.6166406 1.4162508 4.8314123 -2.4696 -6.0299406 -0.49326384 -0.055997476 -4.4201207 -3.1483586 0.7374023 -3.2742486 4.5766354 4.7481174 4.1731 -3.937596 1.6456903 1.4423211 -2.1526947 2.2214763 0.21109937 -1.5689151 -0.73177505 1.1186814 2.6177208 -1.9264902 -4.8892975 4.0698056 -2.6784737 1.150817 2.7635007 -0.39201444 1.3490477 0.5010095 2.9466536
t -0.9947191 1.5437942 -3.2507927 -2.4883177 0.3387798 1.47396 0.85542625 1.5947981 -2.423959 3.2914014 -1.8166735 1.0594325 -6.1727185 3.48566 4.205419 1.7998488 5.971959 -3.1097157 3.2603023 -1.5114206 -0.27181718 2.0989604 -2.8498197 -1.0679827 -1.9880475 4.762884 2.5803154 -2.177182 -0.9114125 1.0990481 3.0925345 -0.84513146 -1.8301882 1.8594689 1.163995 -0.21920197 -0.73627687 1.0631608 1.4537969 -2.8045704 1.9950572 0.9223812 0.81237227 -2.161809 0.7834381 -1.9602642 -5.92282 1.0551127 2.6441987 -0.84753895 2.224417 -3.7088647 1.1759226 -0.30665955 -0.22247458 2.0721302 -2.635686 -2.4503307 -0.79521286 2.0788703 -1.1318597 1.5740031 3.9692078 -3.944909 -1.6324027 -0.5514732 0.11400711 -2.3696256 -2.6624246 -2.4072342 -4.259191 -4.5449276 -7.800203 7.74235 0.16143282 -1.6304519 2.2539105 2.2849894 1.9258488 -4.9885664 4.1541166 2.243499 0.1332509 -6.8073397 1.5600642 -5.7221613 -2.0357187 -1.2922292 -4.403508 4.2525268 -0.05406059 -2.2828016 2.1808856 0.9735534 -0.15496397 -1.5663074 4.94928 -3.088638 -0.21929415 -4.254845
at 2.305823 -3.0995643 -1.5544755 2.1605177 3.0338705 -0.058088873 0.4337097 2.336075 -0.5414718 -0.45299768 1.7578712 1.4519627 -3.3136141 3.5340235 -2.120498 5.383791 -4.2327557 -0.6993905 -1.4771923 4.672372 1.8827963 4.220518 0.53532314 -1.3403714 0.0021882558 0.8333756 1.1296922 -0.5508699 1.2324979 1.5704924 0.99228865 -3.796838 0.6635493 0.43912223 -2.2298894 2.508857 -4.278242 -4.0952344 0.80694306 -3.7134824 2.827034 -1.4471234 -2.3268592 -0.4703034 -2.1817782 0.62961996 0.5549409 0.31284094 3.3025997 6.9308977 -2.002945 2.2584136 0.38647464 4.0401187 -2.9457996 -2.2477393 -1.1173344 2.3467128 1.8850551 2.6126873 -1.3595108 -2.7307577 -3.8223526 -2.667293 -2.0092978 2.3465502 -4.1688156 -3.9631596 2.5182128 0.25513053 2.494455 1.0421995 2.616256 -2.7662952 -1.4235116 -1.674893 -2.491883 -2.0342627 1.9576013 -2.1926756 -0.5928056 4.269033 -2.3329697 -1.6678346 -0.45748132 0.35699463 1.1954558 -1.0999138 0.48190936 -0.40758592 0.86658007 0.6588063 -3.9137814 0.2930034 1.6313491 2.906272 -1.7658975 2.1512806 0.3394785 3.620846
s 3.5814934 0.72581494 -3.4276621 0.58682096 -0.7883764 -0.20733613 3.8505173 2.569969 -1.1742282 1.0340258 -0.94412583 0.5711158 -2.5787733 0.93665135 -2.7020814 1.6708828 1.5660527 0.010576654 -2.4152334 -1.1659678 0.82466245 1.004038 4.1501923 0.82265 1.0210655 -0.76812696 -2.6050138 1.2523084 3.8527217 -1.9530176 -0.6331317 0.21252403 -0.11317688 2.2461278 -0.44852176 1.2308166 -1.5703274 4.8518596 -2.630504 -0.0305881 2.1288466 1.7834538 2.490448 -1.6122129 2.9565961 -2.2599504 3.672824 -1.5972916 -0.3756386 0.11596562 0.8424903 -0.7337139 1.8372462 -0.25693446 2.6538725 2.8583963 1.0145249 1.9334947 0.28061214 5.0280743 0.17198609 -2.645966 -0.8818663 -1.3406097 0.32571718 -0.5352851 4.844054 4.774746 -2.6553893 2.5160406 -1.5259194 1.2953787 2.41641 -0.3508927 -3.4148922 2.5788505 3.7767627 1.1556379 -0.17711598 4.0657763 2.0412116 1.9419315 -3.786837 0.27647763 0.9064347 -0.14086092 -0.1635189 -0.35321954 -2.4301505 3.0100915 0.12099695 -3.7138414 1.8531518 -1.0735544 1.3705956 -0.7360162 -2.7759297 0.09697439 1.600333 -0.57379544
on -4.1748943 -1.6978043 2.2536504 -1.6065402 3.7355268 -2.226352 -0.028498067 -0.007027937 1.7233374 -0.0775021 2.1299188 -1.376006 0.012134264 4.4031568 -1.7122266 -0.75710124 -0.63227457 -0.53216606 0.16765311 -3.2435265 -3.094799 -2.2591488 -2.1041567 -1.35446 1.6166928 -2.250536 2.7389982 0.40096214 0.11902885 -1.8658824 0.63243043 1.7000916 -1.8704131 -2.1987374 1.4798772 -0.6869529 0.60120326 1.3540896 3.1450624 -0.2072664 -1.9512151 -5.7048283 1.3093209 -0.85794485 -2.8269763 -2.360687 -0.86743265 -1.3237194 -1.0351231 2.2505186 6.2096562 1.4123654 3.7705598 3.06774 -1.4490381 -5.854507 1.6594232 -1.3331496 0.46989122 2.0212545 -0.8559542 2.8711195 -3.7983346 -1.9484785 -1.0249425 -1.7875059 5.297426 -0.9984413 -0.11148755 0.3637168 -0.7015719 -5.4128404 3.493571 -4.1800838 -0.9595045 -0.6329472 0.4959791 1.0642956 -3.7845736 3.9382865 1.6504687 2.5662222 -2.3850706 1.3843595 0.4310166 -4.2018447 2.3973293 -3.7253425 -0.23471174 -0.7297297 -1.5089712 -4.9944553 -4.8337474 -1.8001206 0.7241532 0.99520177 -0.76324755 1.3234675 -1.3904932 -1.7070616
all 0.88786423 1.0413239 -0.71519464 -0.8641577 1.8289514 -3.675633 -2.5508456 3.4510965 0.6988074 -4.7331705 1.6559794 -1.6453592 -2.3039823 0.91030544 -1.1768013 0.94034183 -1.1421828 1.572001 -0.45302555 -1.725303 -0.5817741 0.17122895 0.07706658 -0.80533886 1.3115379 0.8555909 -0.9556118 1.4712412 -3.7099206 -4.121112 3.9215202 0.0064524068 -2.0489306 -0.011077982 -3.816172 1.2811193 0.9247328 -0.25821292 -2.2064602 1.5319967 2.0602424 0.53617835 -1.04184 -0.47420952 -0.9988005 0.98688793 -1.0811142 4.2532268 -0.61996907 0.48547965 -0.54100597 -0.84981513 -0.0077001415 2.2645328 -0.73976606 0.52974194 -1.8060751 -2.4497268 -1.4559941 2.3351612 4.7443967 2.7903485 1.875535 -0.76999056 -4.5631127 1.9174169 0.0024419772 -1.2274534 0.9681328 -2.0425818 2.8367107 0.43479577 1.0947447 -2.8618867 0.6885195 3.605836 -3.0112953 0.15544897 -5.1051974 -0.8772384 -1.7216848 -1.1642419 2.0100586 3.781551 0.74187016 0.31356385 -4.018277 1.3209345 -4.879687 -0.23849177 1.5673635 1.6433566 2.3489282 1.5220395 -1.2842137 3.2743886 2.5308583 1.4145691 1.2778091 0.70118
with -5.281515 -1.890561 -4.2069254 0.82618237 3.9915886 0.7206373 -0.9361123 -5.6950965 0.89009976 -4.4575253 -3.456979 -3.9722657 -0.049466677 -0.88589984 0.41032454 2.5944538 3.3685646 -3.3601646 -0.9659597 -0.80989987 -0.80790263 3.0707436 0.17773955 0.10543772 4.712121 0.47567102 3.4665458 2.6601253 -0.7120808 -1.7781585 -1.5915079 4.454678 -3.8225076 -1.5248632 -2.115636 0.61538154 -1.9775589 -1.9111775 2.8726103 3.1670897 -0.113091655 0.8141119 0.009274191 -0.87932956 -0.09771755 -1.399856 -0.95367396 -3.401362 -1.1138883 -1.3331598 -3.630633 2.7857752 2.0761492 2.1263306 1.7286457 0.19214566 0.14061965 1.988645 2.7048578 -0.12680689 1.8024168 -6.3372974 -3.2081642 -2.4564004 2.03517 -2.719396 -1.6750233 1.1890663 0.7916297 1.7203088 -0.7676955 0.6242749 2.9308767 -1.4240624 -1.2285749 -1.5131097 0.29397297 -1.058826 -2.1238472 -5.99603 1.22803 -5.0009933 3.2108045 0.7041646 1.000315 -2.6288128 3.1497753 0.9089779 -4.9759455 -0.44870195 2.4318821 -1.3461187 3.0914855 -0.3704777 -2.0214894 1.1630768 -3.082741 1.4295026 4.7145934 3.1387353
had 1.5550249 -0.3836155 -2.0302145 1.2126395 -4.482865 -1.1018388 -0.64944625 0.19893473 2.1931446 -0.93106693 -2.4470026 -3.5506144 4.8528485 1.6009407 3.9318285 -2.1304262 -0.47486466 -2.183661 -3.5513227 -1.3074231 -2.0123892 -2.7137873 2.541461 -1.1228222 1.4108924 1.0397611 -2.6479821 1.1631281 -0.34219146 -2.864038 -1.4363525 -2.8844552 1.8321242 1.9794718 3.469302 2.9565048 -2.566118 0.7995735 -2.7764773 -1.5972692 1.8721253 -1.9961365 0.74311393 -3.4230785 -0.71669096 -0.37862137 1.7374665 -2.7381015 -1.7044383 0.79010946 -2.2682512 3.3172908 2.0624554 -0.54735255 -1.4625708 -0.39273778 0.99689656 -1.365455 -0.95497 -0.50647706 0.120447695 -0.8021119 -0.22414346 1.7952366 0.71264726 1.8131741 -0.6852492 2.9445813 0.29208773 -4.3068337 -3.771967 0.23472236 -4.7111197 1.6618356 2.2542276 -1.0353677 3.1214519 1.569364 -1.6123208 3.11084 -1.664956 0.7520209 -3.2107286 3.728839 -2.5202734 3.4610767 -1.3059118 -1.6775494 1.1820996 2.1234274 1.2914991 -1.0109096 0.8016321 0.5779287 -4.1929536 1.2945873 -3.0599744 0.8542044 0.3549609 1.173063
but -2.4541748 -1.9013518 -0.6082405 2.0869515 2.641284 -1.415388 -1.82197 -2.9714386 0.4052759 0.9813557 1.3573287 0.98881084 1.02098 0.7890769 1.7041179 -2.678372 -1.1894296 -2.1923366 -5.0947328 5.17647 0.96396166 1.4274007 -2.3501873 -1.8226621 1.6324588 -0.19315286 4.911557 -1.9279159 2.2768755 2.0964763 -0.05772958 -2.8194077 -1.4479123 -2.17703 -0.538804 2.4131622 -0.84913385 1.6270292 -0.514414 0.19611934 0.3762854 -1.3738606 1.8290637 -0.47117046 1.4359386 0.036742873 -1.7025503 -0.56259525 1.1367954 -0.3359838 0.6625425 -1.5785674 -0.04091784 -1.6782882 -1.6888096 1.8069578 -1.4242365 1.4731045 -1.2665122 2.1754277 2.705723 -0.42592824 -0.5766437 1.1179376 -0.5570917 2.2634506 0.37799653 2.900137 -0.83998877 1.8067069 -0.59802246 -4.103232 -5.277439 -1.8234897 -2.632633 -3.019749 -0.65368354 0.75999296 -5.5368567 -1.7085384 -2.4260864 0.52362543 0.20926043 4.0295386 -0.15212655 0.5510998 0.9670799 1.4148445 -0.3770446 -0.31321782 -1.130542 2.1278312 -2.359447 -0.20126052 -1.1073043 0.15996334 0.74555486 1.674528 0.2469032 -1.0871614
for 2.3937228 1.0479268 -0.08738489 0.014542903 -1.9146286 5.3891783 -1.5040436 -4.0650873 2.710634 2.1064792 1.8532993 -3.7426116 -3.3811202 1.1449034 -0.5847877 -0.9732322 3.162181 -3.175698 -2.8249788 4.090869 3.0640812 0.12259549 -1.7079347 -2.027277 1.7709556 -1.4429518 -1.3950028 1.3945609 -4.5450354 1.0066355 2.8303933 0.9368477 -0.7229719 0.24958795 -0.94432443 0.73178405 -0.30427432 -1.3292265 1.8153836 -0.16895692 2.3078923 -1.2336198 0.19193293 -3.8162787 0.5812176 4.5882974 0.52861094 1.2917917 -3.9879634 -1.9974077 -1.9424767 -2.3139925 1.6077371 1.0586005 -2.3607101 3.516646 -0.8017056 0.21209164 2.546633 1.1542912 -3.6595743 1.775121 -0.5197585 -4.15627 -0.6128056 3.5248957 5.658676 0.26660243 0.88161105 5.712851 0.041552998 2.3639445 -2.3341475 0.37442553 -1.0067818 -2.965229 -0.97311723 -0.53087425 2.7735605 1.8776459 0.19422369 0.69359225 -3.7750375 1.6773673 -1.0133463 -2.1013138 -1.507164 -1.2231411 -1.9293023 -1.5258865 -1.0625274 -0.72442394 0.5737813 1.0038702 1.6366515 2.1928756 -1.8454899 1.6357889 -1.7740235 1.0395929
they -1.4755094 -1.0670519 1.329711 -3.707921 2.3198512 -0.5622789 -1.2557042 2.4287207 1.9360243 -2.1867702 4.1656017 2.2665157 -1.0698906 -1.9226698 -0.6307136 3.063031 -1.28928 0.33844414 0.20326088 0.63242704 3.4638255 0.6503961 -4.6489773 -1.5952703 2.8248959 0.47309402 -1.6437224 2.1141844 -0.48109096 0.091507785 -0.4112379 -4.3918567 -1.7437794 -3.026223 0.5538268 -1.7666197 -0.5507666 2.8675077 1.4555721 -0.47516778 -0.9972312 -2.568069 -1.0327489 -1.4429911 -2.8064406 -0.14736284 -4.1264815 -1.3370891 2.1096182 -1.1887479 -0.86221886 1.1471233 1.587158 2.0243871 0.50145066 -1.0702616 -2.0192785 -1.3214928 -3.0202827 -2.563855 -2.3832047 0.056548335 0.73455447 0.020972222 0.50461924 0.24101008 -1.5910789 3.1077383 1.6255739 -1.8175561 -3.631682 2.495293 -0.1466074 0.28179 -1.260592 -1.7054136 -2.042986 -2.7544446 3.5971708 2.5075479 1.4786004 -3.6210032 1.054167 -0.4286353 1.6227636 1.3146284 -1.519816 -1.3809747 1.1508499 2.6280022 0.20612332 -1.7484629 1.1992528 -0.027516672 1.2000053 2.6627097 4.778261 0.49002716 2.080308 -0.91412324
so -0.3033288 -0.82147706 -3.3884442 3.627705 0.74961954 -0.5334183 -0.58809423 1.2247611 1.3196537 -1.4502193 1.8770175 1.9067938 2.9694874 1.3348193 2.6111474 3.7471054 0.70963174 -2.4827824 -1.0583113 1.1963974 2.3332777 -0.55932236 -1.2299463 -2.1448464 -0.4412702 -0.2821235 0.15491632 -1.5768259 -0.54456717 3.2845628 0.40620857 -0.80127394 1.6102858 -3.5740092 4.066917 2.3364396 -1.2086574 3.86064 0.98600686 -2.9784293 -2.3614185 -2.2152734 -0.39093837 -2.4676561 -2.0415447 0.8313642 2.3568509 0.26668698 -2.0307353 0.9552862 -1.0192182 -1.7312665 0.8361573 -1.3436823 3.140143 -0.803088 -2.2085376 -1.1255461 0.888258 -1.2656521 1.9951704 3.7189116 -1.3207055 -0.44481444 -1.4198161 -0.15993014 -1.7647074 -1.3986664 -0.7167896 -0.25369772 3.0544415 0.27798116 -0.94687563 -2.284505 3.7548976 4.085835 1.8604321 -1.0726738 -0.22781041 3.0959916 0.34252512 -1.1589342 -2.8589985 1.2704204 -0.5210143 0.36414012 -0.42351153 4.5490212 3.05212 -0.2995424 -4.3867636 -3.2211215 -1.7751731 0.72961885 0.3307524 1.4005287 -2.6618814 1.1284224 1.4401602 -0.20928337
be 0.5243297 4.5172677 -2.02363 -1.8321925 -0.13286257 0.40169367 1.1531298 -0.12929411 0.868885 -1.8550253 2.704442 1.39356 -0.9052677 -1.9768296 2.3904984 -0.6551135 -0.80550426 -0.31388107 1.18127 -2.4154074 0.14901792 1.8390081 0.96798754 -1.2013502 -0.8499329 0.6912489 1.9617301 -1.6042068 -2.095693 2.6927114 1.7438142 -0.74896324 1.0803812 -2.0237904 -2.5027838 0.46888557 -0.7722896 3.6424437 -2.2239318 -3.4863021 0.38944513 -0.38249755 2.4727497 0.9601349 0.7648895 0.66907376 -1.5742531 2.2033587 2.153306 -2.9887762 5.278484 -0.36262217 -1.6803575 -0.44360307 -1.0365578 2.120417 -0.1388785 3.092281 -3.8428879 2.448762 -0.5753017 2.8376422 -1.3402505 -2.577068 2.4506059 4.573361 4.8926415 4.4324274 -3.4376836 -0.33629337 2.8619032 0.3284282 -0.48228353 -1.0053577 -0.010014412 2.1656692 -0.3203111 -1.1071397 2.277264 -0.9620322 -5.045588 3.6953754 -2.2830582 2.7585766 1.9584391 4.0054975 -0.33709326 -0.86510855 2.5214067 1.5474942 0.0053620413 -5.1476398 0.6084835 0.6416036 2.1368902 1.0110614 -1.8034722 1.800888 3.0009413 2.4808939
not -1.3962635 1.4966314 -0.32008234 1.1982437 3.9515824 -1.2280456 -0.75083476 0.9074179 -0.43535843 -0.6396466 3.4251435 2.8036983 -2.2893138 0.078782864 0.35947832 0.4268931 -0.28443205 -1.5232968 0.73453116 2.130192 3.0768993 5.4298763 -3.7418034 -1.5158298 -1.3206692 -1.2885914 -0.46712667 2.2764828 0.9586322 0.5532017 0.8710679 -3.508894 -1.8622334 -0.2056462 1.8208158 0.658261 -0.5389112 -2.7218628 1.0219076 -0.50324017 0.75281733 0.08256794 1.4318582 1.7398357 -2.27615 1.5386015 0.13370298 1.5530072 -0.0055621658 -1.0102456 -0.3993182 -0.9042903 -1.0232462 -2.0606782 -1.4630038 2.7211652 3.2343137 -3.9182844 -3.1693442 -2.7240899 -1.3754232 0.9343632 -2.2218754 2.1501648 2.4761522 1.8737082 0.4342346 -0.10226047 2.1963458 -0.23109329 0.8318039 -0.056525473 -0.082316495 -0.24780369 3.4194336 -0.23118511 -0.72358614 2.4649777 1.2770725 -2.5288007 2.5791266 0.08588437 -0.33253843 2.3182018 1.1791329 0.6137054 -3.0804005 -0.42314932 0.63121486 -1.3254465 2.0772688 0.0113849165 -2.6789937 -0.6753172 -1.5463198 0.9486392 0.91886085 -0.24597667 -0.18784687 0.32398358
very 0.9069472 -0.4928781 -0.33879015 1.9133086 1.701583 -0.1736504 -3.1817973 1.9545835 2.5399315 4.5505686 3.0520337 1.2859883 -0.45753038 -0.542777 -1.302128 -0.0961317 -0.5482761 -3.5726593 -1.1964529 3.563371 2.892569 -2.9729784 3.63921 -3.5812438 3.1426697 -1.3005315 2.9211736 -3.315006 -3.443785 2.7824767 0.3835549 1.5763952 -2.4463742 -0.020956278 1.6251379 -5.366289 -3.0658174 1.1496665 1.6160711 3.3675892 -0.50602365 0.91900206 -0.49958822 4.5948696 0.24493818 -1.825249 -1.0613456 1.389723 0.29736194 1.291146 -1.2332917 -2.0265224 -3.3304842 -1.9136468 0.15378864 -2.8552606 -1.7665057 -2.1127098 3.2523017 -1.155735 -3.4862032 1.8491449 -3.5006268 2.0022519 -1.6172241 3.2421577 -1.7446936 0.61328864 -0.9085246 1.9845979 5.948769 -3.373515 -1.4193448 0.32152507 -0.7851547 4.4534583 0.8805782 -1.8615832 2.5280008 1.6266044 1.6697412 -2.355258 0.71913826 2.3155077 1.7166041 -0.17243624 1.0187576 3.6314769 4.8741975 0.20387228 0.3659094 -1.7353584 0.042441607 0.9314633 1.0582428 1.0134813 1.575103 0.87937635 1.1655132 1.659696
what -1.1781987 -2.4421148 -2.4939473 0.24098998 -2.9906626 0.39693043 1.5860971 -0.50883895 -1.1022974 -1.2820919 0.32801738 1.8610138 -0.68216646 0.42828012 1.6517873 -2.1020362 -0.29306066 -2.6102645 0.3858465 -1.8820813 -1.1620139 1.6543767 -0.9882041 1.6019393 -1.1418718 -0.6877812 -0.036445044 -0.24739039 -3.7932491 -1.6000288 -0.29610634 -2.9970195 -2.4346 -1.2512333 0.25209314 -1.898268 -0.15743172 1.9675963 -0.35491282 -0.27265584 0.22175694 -1.2276484 1.9905422 2.6767743 -0.6273276 1.578197 1.7233125 3.348442 1.5539762 2.2401378 1.6489174 -2.3421018 0.8959572 0.95734096 -1.196284 3.0938063 0.24084881 -0.8976634 -0.66781265 -4.444764 1.3031902 1.7568324 0.22570658 -3.3202906 2.1211917 3.5769718 -0.17565271 1.9590911 2.1777623 -0.5640245 2.0428326 -1.3942951 -0.16585433 3.7064104 0.9894305 3.9678857 3.1875937 -0.7074288 2.5661008 -1.298754 0.43648374 -2.2050583 1.6056262 0.12545812 -1.9187068 1.3421894 -1.672246 0.526557 1.2496066 0.4916638 -0.60981315 -1.570955 -3.4823291 0.6597425 -2.584127 1.8035582 4.348634 0.8182597 0.6381125 -1.8235068
this 1.7336128 -1.8533477 -0.44080615 1.3804201 -0.47056013 2.617461 0.043342877 0.123716526 0.39035884 2.7726893 3.0608592 2.572553 1.082231 -2.3475647 2.0730026 -1.4950839 -1.0404093 -1.2590758 -2.7072818 -1.8099179 1.9307388 -1.1467156 0.42910963 -1.4980012 0.6276368 -0.6804166 2.6730134 4.269384 -1.8192071 -2.6433973 -0.029770812 -2.6821308 0.71356857 0.866617 -4.62684 4.383821 -2.3069549 1.7113183 -0.19067216 0.19631274 2.916544 0.57628065 1.0346138 1.3368802 0.4826295 0.6182411 -0.67161906 2.6282792 2.6163442 -0.19677103 -2.7898846 -0.9063671 0.93928105 -2.3025784 0.72098565 -0.07879767 -1.4779501 0.23310547 0.46986896 1.7613515 -3.6993964 -1.3632263 0.11077566 -0.46955472 3.3320193 2.2627356 -3.2425687 0.9205048 0.16635855 1.0769241 0.43570313 3.98768 1.2067074 2.2739716 -2.2127142 1.8786278 1.4759194 -2.7905505 -1.0055372 1.1648082 -1.6763456 -0.9757969 -1.4391637 0.8267552 1.977814 1.2112006 -0.22402057 0.004814406 0.30724457 0.69230545 1.8517205 -0.41543296 -2.4186766 2.9007099 -2.5720098 1.2584177 0.6627599 3.6533675 -3.5641491 1.7162713
little 0.34951884 0.7921745 2.0712056 0.6224382 -0.6055579 -3.0160928 -4.2961025 -2.8815432 -3.8767943 1.9935145 0.6088282 0.38132042 0.76386106 -0.93865216 -2.7598088 0.8919525 -2.449116 1.7508795 0.14753139 3.271838 -2.8040664 -0.6283992 -0.95680803 -0.07861959 2.0004869 -0.71013135 0.0016457324 -1.5918393 4.6498933 0.86131763 2.1542556 2.5134277 0.6068597 2.9391239 2.6212647 -3.717359 -1.4990304 2.1555583 -1.3881793 -2.427782 -0.60567355 -2.2268732 -0.62424093 2.06156 -0.33880138 0.3097777 0.3706237 -0.58224076 -3.1285064 -1.1937969 -0.45207778 1.9910908 4.6676974 0.53676766 2.9078407 0.20402667 0.4360847 -1.3582481 -1.6564982 2.18088 0.15985532 4.317614 -0.24646078 2.6247032 0.7477421 -2.0125587 -0.51360077 0.93167585 -0.12403578 1.5949988 2.8709848 4.5220222 -0.6630941 2.2811797 -3.6421633 3.1547058 -1.7922127 1.691675 -0.94758755 0.07726127 0.97636366 3.123594 2.8264422 -2.297839 0.9538347 -0.95781976 -3.8122656 1.6507716 -1.9215729 -0.5548958 4.0609837 -3.6421244 -2.6929307 0.41610277 -0.028164422 -1.3860002 1.3001399 -0.2581261 -1.3638706 1.8152831
he 1.1730981 -0.6802348 0.5619045 -1.4384462 2.9247766 1.1377763 -3.6815498 -1.3547885 -0.9948729 0.678592 3.146513 2.2367554 1.5287498 0.28659323 1.3379004 0.50710875 -1.8008168 1.9877338 0.07969223 -0.11515953 1.3620305 -1.826087 -1.9564291 -1.9862759 -0.20776658 -0.4135866 -0.36898217 -0.5495827 0.5010285 -0.46132296 -2.449341 -1.736237 -1.754586 -2.7193084 0.14221562 0.9633299 0.12678431 0.8873568 3.15639 0.62248236 0.29481712 1.491875 1.3825284 -3.3856382 -1.7489821 3.3919601 -3.9117987 0.644564 -0.8633724 2.6545506 1.3024399 0.23198628 1.597783 -0.036136907 -0.9686454 0.95957524 -0.71565616 -2.6102993 -4.4547515 -2.0327356 -3.7454767 1.1618598 -0.45517725 0.1499454 2.8657 1.3525637 -1.6491086 -0.8923318 0.39204788 -3.326408 -4.51435 -1.1870153 1.1673226 -0.62164927 0.42116526 1.3693717 -3.8643613 -4.055503 0.4461244 -1.6092824 1.50154 2.270868 2.716334 2.581781 2.878815 1.0499921 1.505095 -1.9053189 -1.0843064 2.808729 -0.71830845 2.1302717 -0.49171084 -1.8177077 -0.77991694 -0.23757224 0.0057108775 1.2865418 0.7069888 -1.3007619
out -0.6514657 -0.9268316 -0.6539013 0.8254913 1.8262464 0.6832115 0.22163557 2.3285592 2.4593332 0.700166 -3.0048594 -2.453195 3.3053215 0.35538083 1.8136876 1.6999133 0.65445745 -2.4708195 2.963206 -2.4755325 3.510786 0.40481177 0.24553838 -4.33725 -0.30286974 0.9009973 -2.115847 3.6203885 -0.20063227 -2.3921707 1.6080081 2.2771945 -0.4317736 -0.54538554 1.0642238 1.4074675 -1.9693042 2.3228087 -0.73174906 -2.9439168 -0.14811759 -0.06295378 0.2168391 -1.3211048 -2.6788816 -1.491457 0.1564803 -1.926734 1.6595322 0.019482024 1.2427367 -2.2809265 -3.009319 1.027356 2.7410805 -2.2032743 2.4045334 -0.6875663 2.2578328 -0.38126245 0.43299013 2.685291 -0.89325434 -1.4103266 0.30671358 -1.1246505 -5.140519 -4.205573 5.24536 -1.1087354 1.4096273 -1.0556102 -0.10738837 -2.5546956 -0.65057355 1.3546226 1.7952137 0.4831453 -0.05314585 0.89206344 3.4979198 -1.6989386 -1.1443285 3.0522697 2.765976 2.2237813 1.249704 0.6428062 0.36399165 -2.347269 -0.26552406 3.5935323 -0.64236856 -0.40995058 0.10805594 -1.4650294 2.2188795 2.6891232 0.50034577 1.323323
is -0.5337149 -0.05351535 -0.55988294 1.9881446 -0.94275224 -1.52419 1.7255768 1.8564757 1.4011953 0.5535739 -0.88123363 -0.45099166 -0.054508734 0.5316232 -0.1231445 1.118937 -2.6446288 2.2203522 2.536879 -0.45134038 -1.6566638 2.8354416 0.6794908 -2.8871531 -1.2173591 0.36768457 -1.5363461 -1.9927502 -1.7994989 -0.4091391 0.17861985 -2.7873695 -3.1797686 -1.7519962 -0.04627095 -0.7363341 0.6068671 -0.97626215 0.848658 3.0394163 -0.10146725 2.0117815 1.7236972 -1.8809228 1.3086205 0.56945825 1.0358661 -0.03541136 -1.2135782 -1.6086547 -0.9223193 -2.3202772 -0.42111057 -0.05576817 2.2580686 0.99705404 -1.2335031 -2.1957324 0.110553876 3.5169928 3.4386313 -3.892433 -0.22496466 -2.7885127 2.8242671 -0.85849917 3.4939291 -0.24106368 3.3353553 0.47656262 4.51985 -1.3688763 -0.08128407 1.1815072 -3.1989672 1.3625096 0.59027344 0.824582 3.6156123 -0.55479914 1.8346165 -1.6261785 -1.4653265 -1.9531144 0.58150494 -0.5549223 -1.1741616 -0.04509342 3.5357356 1.7438717 -0.900456 -3.8053331 -0.24714704 0.47840908 -1.4112437 1.9050139 1.8903834 1.1666095 -1.7434362 0.34472594
one -1.538072 1.3299301 -2.2485182 2.2762938 -1.1757008 -0.00842213 -0.5482096 -2.3768005 -1.9471427 0.34595755 1.1882609 0.07035929 -0.04930925 1.8211498 1.264217 -3.5142417 1.01614 0.23766056 -1.1649177 -2.836284 1.6954383 0.02289538 0.2550487 -3.4096248 -2.4396625 -1.115501 1.2068895 2.008313 -0.1738201 0.31252113 0.27145484 -0.51327163 -1.1890153 -1.5667257 1.7458582 1.0738313 -0.22034866 1.2525915 -2.642622 -2.995585 -0.42003015 -3.858514 -2.2368412 -0.74160916 0.4729596 -0.16706145 1.1939278 -1.8012161 -0.59371006 -1.9350294 -0.7781085 2.3738875 2.8380806 -3.177199 -0.98420256 -2.5965018 0.40806782 0.12657939 -0.8262901 0.5355421 -2.6819658 1.5996157 3.2431345 -1.2917067 0.8646812 0.32780632 -0.16837533 -0.0023313714 0.18527003 2.8150108 -4.2085896 -1.8839073 1.50025 0.28888124 -0.61484903 1.5133861 -3.652225 -1.6292619 2.2201402 1.013419 -0.34088895 -0.24006912 1.2250578 2.467777 1.1454014 0.98042876 -2.1084557 -1.3313671 -0.6636363 -0.7041413 -1.1762135 -3.4013155 -1.719047 0.89726925 -1.3299032 3.5969326 4.0818543 1.4671118 -2.0690155 2.6520164
down 1.1568645 -2.5841281 3.2178185 -1.4988266 1.9679004 -0.91557443 -1.4609466 -1.0269547 0.97752196 -0.36093703 1.4187319 -0.9006668 -0.7530699 1.0049707 0.08106477 3.4358 -1.5055062 -2.14591 -0.8558581 -0.44175613 1.4682987 -0.018309796 -1.0591261 -1.3781095 1.0642967 -0.7000934 2.0692635 2.8014467 1.3247849 -1.3502301 1.6539834 0.68888146 -2.444263 -0.052900184 0.9889618 -0.7774715 -1.8527821 -0.3294229 3.5646603 -4.8328667 -2.5042677 -2.9395514 -1.3340633 -0.827202 0.05300621 -0.07735593 0.74283373 -2.2572017 1.4483238 0.39825663 4.0839005 3.258149 2.141063 -1.1920989 1.0069802 -3.6257915 0.22531582 -2.4190977 -0.1554441 0.05017279 -0.3325411 1.2281052 -1.9594957 -0.79904866 1.7916626 2.1835098 -3.3122733 -0.45627192 -1.4368185 2.102726 -1.3532219 3.0371554 -0.65955544 -3.8413475 -1.056239 -1.9530896 -0.33261693 -2.585256 -1.8675988 3.7281258 0.62295854 -0.12445155 -1.9279337 2.0493596 1.574864 -0.2325946 1.0981525 2.9617183 -2.4753125 -0.13437529 -1.5858545 -1.5572776 -1.4468127 -2.5715554 -1.9100301 -0.284282 -0.88367355 2.9199553 1.3739659 1.210188
up 0.7804445 0.1433313 -0.2217083 0.75188935 -0.08054896 -2.986352 0.12105255 3.6652405 1.7929978 -2.803165 2.6208034 -1.3736628 0.9208728 3.059798 1.1622053 1.249598 -0.22148883 -0.72490203 -0.9428717 1.5249854 1.1875257 1.50648 -0.37021548 -2.2696385 -2.5662646 -0.6066757 2.0146623 1.8813758 1.1595677 1.9002213 -1.7047596 -0.9357314 2.5002198 -1.7871913 2.720629 -3.888842 -2.3367534 -2.6076357 3.8154225 -3.8717723 0.8434172 -2.1434836 -0.73093575 -2.1285956 -1.5108353 1.4923706 1.1268232 0.7990204 -0.44750002 0.99575526 -0.4258997 3.0335743 1.4274901 -3.2095425 -0.15841824 1.1985571 1.8077564 0.35769352 0.10400351 3.756813 -0.6393227 0.41145644 -0.9569026 -1.9786901 -1.6984786 1.5822824 -0.23161589 -0.3060396 -1.2897247 2.0290394 -0.87332916 2.3756032 -2.3481557 -3.469501 -2.1219857 0.07972401 1.2437406 0.16686806 0.30411395 0.40142944 1.4252223 -0.8850908 1.9468569 0.50935644 1.3512833 -2.6524146 0.36269397 2.930869 3.9604552 1.2561014 2.0775506 3.0407357 2.1256058 -3.8897948 -1.1613467 -4.228146 0.047404073 3.4161105 -2.155233 2.5723329
there -0.88384736 -1.6865624 -1.8256279 3.7705858 -0.7475187 -0.69586563 -0.8208778 -1.91266 -0.5896657 -0.38871005 2.633538 1.2178758 -1.3643427 -1.5316441 0.6851986 3.1932466 -0.9007075 -0.9015534 -2.8619866 -0.68195254 -1.7226616 2.6962233 1.1530007 -0.7155506 -0.4681669 0.65392965 -1.227953 1.4155723 -1.6099054 1.2807834 -0.3803498 -3.2197547 -1.5201061 0.103639 0.72302896 -1.4782606 0.3348245 3.403125 -1.242951 -0.87067884 3.6107738 1.5149786 -1.4705554 -0.6485768 0.42447627 0.6914602 -2.7494056 -1.1672957 -1.0908245 -2.3721983 0.7139759 0.23531154 -0.6404661 0.43729874 -0.7938241 -0.88467276 0.28693366 -2.3018665 -0.52161133 -0.204786 -2.7847717 2.127315 -3.6808643 1.3661407 1.3011444 2.1596494 -3.3650084 1.7516414 1.3795116 -1.2237893 1.9707869 0.9459674 0.9774415 0.38238132 2.0892596 -2.1358433 -3.1031613 -1.0042008 0.59339863 -2.9021397 0.77550006 -0.8406206 0.11563817 4.2611 -1.2574401 -2.7921705 -1.2576963 0.16838902 2.487295 1.7358329 0.15918712 -2.294907 0.761617 -0.9983737 -2.5376704 2.4002492 1.5419283 2.3222833 2.441988 0.13728888
if 0.3391183 -2.2747746 -0.21712655 -0.11868517 -0.70837384 -2.5953138 2.247787 0.25763685 0.41727906 0.38865757 0.1349004 1.4697069 -2.2292876 -0.42916322 1.3397765 -2.0847602 -0.16846839 -0.15952654 -0.9473116 0.13639879 -2.5777504 0.79603004 -2.2590365 -0.7595201 -0.46011928 0.19614443 0.80974895 -2.394694 -0.9925988 1.5144806 0.020580936 -1.2534922 -2.010897 -2.6679988 0.599602 -0.9233028 0.38256672 3.2646456 0.65833354 -2.8221235 1.5416979 -0.6675525 1.6625462 -1.0117416 -1.9993938 -0.564206 -1.8266793 4.1273413 1.2084082 -0.16304979 0.66013145 -1.6344503 -0.35857597 0.7275078 -0.44574383 1.9435339 -0.2705677 0.08907792 -1.2474027 1.8359755 -0.8433373 2.1610858 -1.8808982 -0.20279367 3.3216653 -0.6856917 0.009601546 2.4373016 -1.4912322 -1.1926162 0.667478 -0.34889728 0.04568123 1.2825502 0.3937208 -3.2127814 0.24874984 -1.4955951 1.4207736 0.45911947 2.1689749 -0.5706032 -0.042258892 0.75934124 -0.6376195 0.16269706 -0.43927026 1.1095598 2.4948888 0.34047887 0.24328941 -1.2139834 -0.23836458 -1.5390452 -0.5598281 -1.5072757 0.8460472 0.09535405 -3.0399148 -4.085363
his -1.082824 -0.98382825 2.508191 1.5445002 1.3092726 0.28839156 1.0345566 -3.247409 -3.254826 0.9930073 -0.8456765 -0.00069377496 0.029688608 -2.7524965 -1.8945745 2.0401058 5.2123356 4.0409126 -0.8929958 -0.72012836 -1.8024987 -1.8887137 3.8012507 0.16560358 2.4127505 -3.789134 1.8928022 1.0384698 -2.6105275 -3.3011904 -0.99863577 1.1485032 -0.22512047 -2.5120134 4.9501395 0.6606866 -1.5471532 0.86514115 2.7411857 -1.1867807 -0.8080478 0.20944701 4.740699 -0.9965179 -1.2652818 -1.4904884 4.7659264 1.5641375 1.2678984 1.0423205 -0.06929825 -0.15988126 1.003991 3.7444987 -0.9390277 -0.84360665 3.8566422 0.06180324 1.0393046 1.7778243 0.88668126 2.379962 1.2033266 0.8277422 0.80897915 0.8435325 -0.3991287 0.2981677 1.1243229 -3.6350536 -3.7169716 -0.29344422 2.2310493 -0.81083864 -1.9416506 0.5064114 0.6879851 -1.839901 -2.4649804 -3.457927 -5.888116 -0.7786603 2.086719 -0.96490085 5.623557 0.5113661 2.3846967 -3.4245017 -2.0123687 4.1382036 0.09914721 -1.5160166 2.7090166 -1.6876062 2.0131397 0.33115306 2.9551637 0.561389 -0.9692554 -0.16666
then -1.341194 -1.4736195 2.4475818 -1.751356 0.75108504 -1.4685562 -0.3017682 -1.1004698 -1.2602807 0.879256 -0.96113014 -2.3213234 -2.6247265 0.7740684 3.423609 -2.8193293 -0.7772224 0.9767764 -3.620832 -3.1778746 -0.00315959 -1.27207 -0.8991492 -3.1296666 0.51597434 1.6002378 0.81872505 -0.7821694 -1.0672464 1.3382545 -1.8226371 -0.14731026 0.66969866 -0.67237973 2.1366172 0.25773904 0.12505737 2.1282983 -0.9368747 -0.41108835 1.5218482 -3.7875004 -0.5016249 -0.76007956 1.1476859 -0.5205815 -1.3385005 3.0913384 -1.4264452 1.7686312 0.93009734 -1.8041915 -0.2000784 0.4545786 -0.49117887 0.2554696 -1.6609097 -1.3159121 -0.291034 2.597362 0.41326177 -1.5975665 -0.3104653 0.06300331 2.3016622 -1.155348 -2.909583 -2.1408432 0.4381579 -1.3048496 -1.956003 0.92081326 -2.437813 2.2192285 -0.4586135 0.97296697 1.9017556 -1.436518 -1.6715225 0.559918 1.9562683 -1.3379698 -1.0801644 -1.7353756 0.13550432 0.30795112 -0.05095436 -1.6981223 0.49450237 -2.454416 -2.8746426 -0.9145635 2.121213 -2.51543 0.5641427 2.969486 0.2951473 2.5614653 1.9168766 -0.24888597
about 0.10812253 0.5057204 -4.5085707 -1.4060987 -0.5661596 1.8934504 1.5774456 2.1787043 0.8280737 -0.8842498 1.1584045 -1.6332583 -1.104362 3.4799733 -3.3725357 -1.803045 0.8405569 -0.71066433 4.680363 2.0814872 -1.3642142 3.2695467 2.4189415 -0.18751872 -2.0991178 -0.15685199 -0.01523547 -0.3761122 -1.017876 -0.9402257 1.9506487 -3.6469252 2.7628527 -1.8032626 0.2703724 -2.5233335 -0.5297141 3.1017559 2.1347408 -1.3324966 1.2806656 -2.2281857 -2.5281684 -1.7186536 -2.0753317 1.8198605 0.023872001 -1.0666529 0.1566593 0.8688805 -0.97444665 -0.184106 1.8907238 1.9460319 0.95477426 1.022364 0.8249551 -2.2653224 -1.9330422 -0.15001908 3.9300156 -0.121826954 -3.265465 -1.1900374 3.18707 -3.0470638 1.4722378 -1.0866727 -0.46862832 0.4474426 -0.8941737 -1.1631106 0.51936615 -0.072216384 0.9227447 -1.9781753 -1.084776 -1.3573059 2.4768615 0.24110705 -0.8788292 2.8779914 -0.55682766 1.9742907 0.88029814 1.4057813 -0.35618442 -1.7872652 0.3895761 1.008787 -2.8753834 2.7172654 1.5587709 -0.09707613 -1.3051353 0.9049456 0.6104029 2.9437788 -0.32490078 1.4955956
no 0.5892994 0.1761415 -0.2676697 -1.8469187 -2.7131093 2.0093157 2.081173 -1.0007905 2.3242612 -0.8335501 0.13370004 0.31476155 -3.2384567 -3.3174083 -1.4826776 -1.4294212 0.041590802 -2.4374855 -0.7902651 -0.010836906 0.6154919 -1.3225485 0.42569092 -0.66571516 -0.17942727 -0.15818752 -0.011384692 4.630537 -1.4956039 -1.1672457 3.2087219 -2.2343912 0.23889203 -0.92657685 4.278217 -3.6459308 -0.661245 0.4548229 -2.556246 -2.6999638 -0.4349361 1.0526223 2.5286708 -2.85658 1.4476979 1.6080179 -0.893243 1.2994748 0.37605438 0.498802 4.171183 -2.627747 4.2140875 -1.5048027 0.37214455 2.2419276 -3.11384 -2.4986656 1.3776847 -0.14354433 0.8571112 -0.955068 2.3265743 -1.6495543 -0.35835615 -1.788555 1.0070139 3.3615775 -0.51537514 1.2176358 0.9819337 0.16915002 2.3815594 0.44864276 1.3239508 -1.730992 -0.051358785 1.3347492 1.022051 -0.71072996 0.19013982 0.34302995 -1.3563547 0.87007946 3.2475615 0.079415515 -3.3899012 1.8450301 0.28957626 2.733404 0.09185544 0.49306414 -0.9612851 1.815116 -3.089653 0.46839193 -0.17331699 1.0850537 1.5259886 1.0682036
them -1.7825994 -0.32378468 -0.41522184 3.1346252 1.3076015 1.4866076 0.8299551 3.2825267 -0.49748284 -1.0532087 3.9192953 -1.3571298 0.7943882 -1.1860418 0.8515615 1.6321067 0.5016254 -0.7966919 2.2704575 -2.9874291 1.3759187 -1.0032176 -0.5215621 0.57037467 -3.040956 0.582791 0.46178263 0.45674548 -1.2945794 0.62118816 1.9598463 -0.3385362 -3.2241094 -1.2145507 2.746285 2.542591 1.8452904 -0.25681397 -0.89980006 -1.9247096 -0.88758194 -1.8019507 -0.5976183 0.95484746 -2.2996 -0.6077214 -0.8890549 1.5490689 -0.010558658 0.56614864 -1.282785 1.4128412 -0.3960074 -0.45343268 0.3151131 1.6170108 -0.191971 -0.9176879 0.5467031 0.48244992 0.95166963 0.14130393 3.888026 0.479058 -0.3138453 4.5413694 -3.0509562 -0.12840562 -0.17938897 -3.1737328 -2.907207 1.1379857 -0.8693299 -2.1770208 -0.43720153 -4.756493 2.4536088 -0.8561405 -2.7003355 1.1225814 2.6809971 3.2698448 0.6536673 -2.24243 1.4913664 0.8885863 -2.3339891 -0.08899403 -0.73119277 -0.1112009 -1.3733355 -1.6068411 2.8587182 1.3418422 -0.73639446 1.0490055 -0.97143936 1.766885 0.45226333 1.533056
know 1.1335491 0.17280892 -1.0454534 3.4523335 1.2512442 0.98735225 -0.40686586 -0.92718446 3.0818515 -1.6635113 0.67066705 0.4534758 -0.57493097 -2.676912 -1.7350699 -0.97249085 0.2967838 -1.5244241 0.11799351 -1.1502597 0.4123834 -0.100066915 0.473226 -0.13528566 -1.5841111 -0.9824907 0.0677077 -1.2897241 -0.26919416 -0.70382327 0.5685073 -0.8889733 -1.8515631 0.31203002 -0.04743025 1.2630228 -0.31217602 0.3527534 -0.5550479 1.2770137 -1.6193537 0.66790646 0.9513882 0.016667275 -0.47362348 -2.245714 1.83628 0.5389043 -0.123110004 3.0883925 0.31363183 -0.0011602925 -1.6373497 2.8068643 -0.95329815 1.4646602 -2.0998046 -1.2287449 0.70804465 -0.531757 0.13008653 -0.84742844 -0.23837815 0.1023081 1.7319529 -0.7354718 -0.053256184 1.1926457 -0.38116792 -0.8093989 2.9600544 1.2423942 -0.5913419 -0.55624807 0.41990262 -0.17924246 -0.8142849 -1.2859408 2.0785556 -0.52656907 -0.12039962 -0.79209006 -3.7433102 -0.8363442 -0.259842 2.410505 -0.30963227 -0.93264526 1.6476799 -0.28738648 1.3538427 -2.0520968 0.94684887 0.20848784 -1.5828735 1.5738984 1.5610788 0.8153368 -4.10687 0.05948222
like 4.5921707 0.10729386 -0.9495737 2.4388483 3.530868 -1.2377499 0.23787723 2.0023198 0.6836859 -2.5468936 3.3394763 0.7883731 -0.44719422 1.709609 2.442134 0.2791034 -0.7638922 -0.9068243 0.5547638 0.12516521 3.2938383 0.07442298 0.830331 -0.382544 2.5233696 0.37461904 0.94954467 -2.278398 0.30327553 1.7588968 0.5570933 0.15886462 -2.388555 -0.6347603 0.096593685 1.7789501 -1.3452362 -1.1730351 0.22803298 -2.1309197 0.6614788 0.7804548 -2.086695 -0.60978144 -3.5734026 0.2733317 1.0356483 1.2898302 -1.1901916 2.2902288 -0.341024 0.4908213 2.180666 2.372107 -0.5939383 1.3767494 -0.7739036 2.2403505 -0.43854344 -0.7234729 1.9097512 -2.6263576 -3.7289908 -0.7499812 -1.0862029 -1.7239944 3.651575 -1.1967043 0.102074504 -0.69037414 3.0559244 0.67469245 -2.0107155 -2.3832717 2.769353 0.9282855 1.6783987 -1.6200169 0.21350253 1.5994631 -1.8420049 1.6425211 0.57424986 1.2213593 1.1062907 -0.13089266 1.8619254 0.5763061 0.3912803 0.23322496 2.2893548 -2.4475832 1.536135 -0.4327354 -2.706599 -1.15555 2.4148793 1.4259557 -0.5717118 -0.76567066
were 4.5246835 1.2335472 -2.1981285 -0.79116195 2.2035103 -3.208325 -2.1382003 -1.5801208 2.6956296 0.5878511 2.265147 -4.4286685 -2.3213937 3.4540153 1.5860488 -2.6178048 -1.6364625 -1.3647754 -3.220825 3.0502567 -0.5268216 -0.97730434 4.026614 -2.923407 -0.45939907 -0.17222786 -0.69520336 -0.5906874 -0.026840946 0.5751545 2.4279475 0.3057811 -1.225215 -0.09809838 2.0275106 1.6774148 -3.5179996 2.222245 0.7063512 3.2611663 -2.2113545 -1.3538618 0.8904267 -1.028117 1.8353502 -1.9604973 -0.7193013 0.1408771 -1.0137919 1.21452 -3.6291547 2.36171 2.0808647 1.9304193 3.5546384 -1.0465072 0.7734348 -0.7067502 -2.0203211 1.1091403 -1.9553952 -2.8810003 0.8100405 -0.128516 -3.3678136 -1.243124 0.74954224 0.4204838 -0.24856144 -0.7113755 -1.7067188 2.1149547 2.5646772 0.38050166 -0.15353201 -0.3676225 -1.4096379 -0.20802608 -0.6495463 -2.534578 -1.1461366 1.461534 -2.2970164 4.00477 0.45601022 2.3819559 0.49647188 -0.9577792 0.2174215 -1.3588244 0.25102413 -3.1440406 1.8674536 4.219372 1.9126962 1.1374038 -0.76387614 1.1070713 -0.27113616 1.9936527
would -2.6417375 -0.08666513 2.188187 0.7833803 -0.4660785 2.7904947 3.6652608 -0.57188773 0.9994873 1.1142412 1.7721031 -1.345614 -3.4218051 0.5109783 1.8224534 0.10064966 -1.6744095 -0.20872591 -1.1563469 -2.9844596 -0.851125 3.0959947 3.0350797 -3.187974 -0.38452888 -0.91992396 -2.5135825 0.5413824 -1.6077466 0.48694402 0.87937933 -0.46496132 -1.1971865 2.177593 1.8125724 1.6629592 0.5279112 -0.31161687 1.9283988 0.22424787 0.48701456 -0.92463624 0.45293254 -1.4031287 -1.9800285 -1.3959037 -2.544954 3.0398018 1.4030286 1.4237671 -0.19761737 -0.30235735 1.104404 -1.4104701 0.29791513 1.4361839 2.4436765 -0.68315417 0.28124702 -0.20039493 4.8265104 -2.3557076 1.2878047 -1.3807873 0.77232873 0.07863328 0.03209732 -1.5910403 -0.8423776 0.023547852 -2.1310594 2.6235397 -1.1081631 -0.21122755 2.837265 1.4673462 -1.010441 2.411358 0.78277373 -0.7279086 1.0375259 0.004570473 -0.16141042 0.25773686 -0.074398436 -0.9339041 -1.1121004 -1.885164 2.073666 0.057526022 1.1594725 2.3955486 -1.6403458 0.76975685 1.5128195 -1.597699 1.6190094 0.84183216 -0.20725337 -1.1630538
went 0.9912125 0.29096848 -0.86038065 0.4463564 3.6270955 0.5166753 -3.0383558 -1.5029312 1.0945214 -1.2539945 -0.7115174 -0.558067 -1.264989 -1.0724669 1.6840875 -2.2662907 -2.1467166 1.0375524 0.02057982 -0.29364142 5.3276267 -1.5449266 0.66881496 2.0305905 0.90317345 -1.6390514 1.6940986 -5.192197 -0.89653116 -0.37935817 -0.34766978 0.10170274 2.6617136 -2.1934807 0.19682768 0.041094914 0.22110988 0.33768764 -1.0301747 0.76471245 0.3488927 1.8876234 1.4947168 -0.45091936 0.13120283 0.030839985 -0.5611988 0.6962105 1.7709954 1.2859249 -0.9134265 1.0376889 0.62066907 -1.7580428 -0.5093593 1.0679536 0.037727993 -1.2958746 -1.2512459 3.4384372 -0.16255456 -0.32435584 -1.2921656 -2.561258 1.7756377 1.6097145 -0.63670796 -1.5725046 -2.965583 -0.5615146 -0.6932407 -0.965282 0.064463735 0.5368573 -0.32632414 -1.3059949 -0.50541437 0.38833418 -1.5863943 2.882744 -2.9155655 2.2931201 -1.9853394 1.5367807 -0.94857585 1.6046587 -1.1701194 0.26285258 1.9341757 -0.7689026 1.8286687 -1.5939803 0.16390465 0.5454905 1.7868849 0.81178874 0.61322814 1.8201985 2.360973 2.4243622
again 0.95034695 -0.14221518 0.32596678 4.04998 2.546187 1.0932076 1.168513 -1.0530119 1.5852584 -2.3058636 1.861298 0.7775388 -0.98072106 1.9784472 2.7015054 -1.1798884 -0.51881826 -1.419313 -1.0273544 -1.2807214 0.021239657 0.94697225 -0.7361352 -0.99724907 2.656863 -1.6443485 1.8111126 0.19905594 3.1453295 1.0300142 1.3827962 1.4680611 1.1244614 -1.054144 0.42649317 -0.3144501 -1.22754 -0.6474208 1.8200854 -2.6965222 -3.4878418 0.037199147 -1.5040656 -2.0929594 0.4122741 0.7231536 0.97280735 2.1196723 0.72296673 -1.0138555 -1.9582576 0.4385894 0.30692458 -1.0574143 -1.3770758 0.13163237 0.2102221 0.19972248 -0.48117954 0.8447972 -1.5956038 0.3194715 -0.042620104 -1.5066066 4.210354 1.8043954 -2.0943732 -2.023167 -1.053317 0.041090224 -1.9321828 1.6050221 -0.84615636 -1.583083 -0.91198707 0.117073454 -0.8684676 -0.36634573 -0.7711156 0.038310677 1.2084849 -0.23940548 -2.4478874 -2.2618854 0.6282235 -1.8075925 -1.4963413 2.407852 -1.2714158 0.00094562565 1.1373625 -0.2863931 -0.31606218 1.2334497 -1.9477574 0.5196915 -0.27880403 1.6723511 -3.4584007 0.79204583
herself -0.4150258 -0.18469454 3.534426 -0.2171788 0.14701979 0.58084387 -1.7259299 -1.9238036 2.773163 -1.1551478 1.2350816 -1.3703352 -0.35387072 1.6724191 0.9733761 1.2707967 -0.9018112 0.8854676 -1.246463 -0.36193743 2.1542795 -2.5296345 2.533563 -1.5696373 1.1929363 -1.2550222 -0.14286603 -0.3837561 0.09530995 1.6105262 1.6972507 -2.592526 -2.1860912 -0.34676364 -1.0395799 1.44644 3.907404 0.2693312 0.78354675 0.07690886 1.4513173 -0.09830977 1.0767907 -1.458922 2.7798488 1.8990325 -1.9334043 1.6163324 0.7930467 2.1911585 -1.5402966 -0.13547555 2.2579746 -1.217268 -0.276666 -0.677751 -0.54165107 -1.5705519 1.585796 -1.0743393 -1.8242013 0.25078195 0.75798494 -2.3474143 -1.4726098 0.7029596 -3.8039901 0.46552616 1.0091281 -1.4680665 -2.554116 -1.0503743 -1.0143224 -1.3097966 -2.4550395 0.28709564 -2.5167532 -0.93289757 -1.5356827 0.49673018 -0.100638494 2.128443 1.6559987 0.6984217 1.0134606 1.3927596 0.85334295 -0.3059608 3.7011712 -0.35139418 0.4665842 -0.24822356 2.4721253 -0.2257812 2.3014226 1.5233433 -2.966258 1.2908348 1.3931803 2.3816128
do 0.073860295 0.033043005 -2.128516 1.2307605 -1.184991 1.2774615 2.0685215 -0.22028469 0.48111415 -0.940211 -0.51478344 0.3705182 0.14745604 -0.063663654 0.8086088 -0.63739735 -1.7806209 0.80484974 0.449401 -0.15933928 -0.68936306 1.0971698 -0.60723037 -1.1827178 -0.37638626 -2.2640474 -0.8507257 0.43940422 -2.3970535 2.1731627 -1.1098515 -3.830279 0.6958074 -3.0471845 1.6359048 -0.011404207 1.0787436 0.6655832 1.4220421 0.363698 0.33573586 -2.191011 2.009715 0.07690366 -0.3753559 0.94599056 -2.3948412 0.5239356 1.5198288 0.9997101 2.257475 -0.08694345 -0.6283553 -1.2667556 -1.8256934 1.3376846 -1.1058904 -2.3140817 -0.5195019 -1.0269108 1.4800158 0.5682233 -0.3242844 0.033726856 -0.72781074 -0.31902674 -1.0074129 1.3064398 2.0432606 1.3806536 2.3782709 3.0394044 -1.9071352 0.94318205 0.040105175 -3.1526432 0.36537674 -0.0066351625 1.8873194 0.42356455 -1.893947 -0.77855444 -0.068290696 1.433693 1.1608869 -0.14962828 -0.92519987 -1.3741789 2.685264 -1.1384104 2.2770815 -0.90244156 1.4999729 1.085988 -1.4250293 2.077746 3.361488 -0.4367603 0.07615865 0.7854301
have 4.5006633 0.7373928 -2.022405 -1.000857 -1.3782809 0.19512624 -0.17650358 -0.075205944 -1.6493284 -4.654484 0.6909982 -1.6459863 0.9831972 -1.4199278 1.0678946 1.4250264 -0.75164855 -2.8365185 -2.3032422 -1.5802244 -1.8485838 -1.6832466 -0.79998773 -2.4022295 -3.6296465 -0.8984113 -0.6687592 0.09755911 -2.8982575 1.9936887 -0.9398909 -1.0904342 -0.397785 -0.6786575 0.5696538 1.9331155 0.032459207 1.2456596 -3.5545037 -2.1037781 -0.6218451 -1.5301512 1.3879687 -1.9510859 -0.3947708 1.5161954 -1.4777422 0.7220214 0.055646006 -3.111835 3.716273 2.9050095 -2.21565 -0.42694858 -1.8205805 2.8995821 -0.26936316 -1.4859244 -2.3320856 2.3322241 -0.44010663 -0.29095554 -1.5206513 1.7690908 -1.2694964 0.16590296 0.13560103 0.7927628 1.2622476 -2.5485823 1.6070995 1.7786785 0.5276036 0.42708132 1.7314706 -1.7026638 4.244831 1.368752 0.77839804 1.7924981 0.7875164 2.1348855 -2.5835843 4.421815 0.061219405 1.7729127 -1.7299618 -3.0071042 0.7721763 0.18404815 0.108467795 -2.432435 2.5682917 -2.8933616 -0.5017189 -2.1685493 -0.9698673 1.3092006 2.615034 0.68925655
when 0.6743184 -2.2290404 -1.2775747 -1.4488246 0.57631886 -1.6263198 -1.8019776 -0.77807933 -0.7006739 -3.0389218 -2.9564457 -1.1177368 -0.8665021 -2.3103342 4.101759 -0.049835704 -0.026739346 -1.3593869 2.1598494 -1.1305659 -0.12835304 0.6055563 -2.3754072 -0.87135494 -1.6357231 -0.5174305 1.1464347 4.0942044 -0.48672816 -2.0430837 -0.13528045 -0.75982815 -0.79466254 -1.7326306 1.6459688 0.41941583 -0.78800315 -0.26155996 -1.5053365 -0.6427817 1.552064 -1.3470155 0.13640654 0.35835811 -0.8098321 -0.57081014 1.4580945 1.4258054 -2.279915 2.968791 -2.9462829 -0.6245965 -0.74657756 1.3872086 1.0972373 -1.183292 -2.1522427 0.2860872 2.3513193 0.07502199 -2.8263822 0.018831834 1.5939202 -0.9770074 0.97514975 -0.009010726 -1.0682734 -1.0718173 -2.8965538 -0.89010906 -3.6325486 -0.5662692 -2.2527783 -1.3918202 -2.6861374 -1.6927376 -1.1407331 -3.0339534 -0.08355659 -0.2327551 -0.5767747 -1.6731212 -1.3320987 1.9888936 -0.29189244 -3.897507 -2.9704442 2.5870757 -0.8471679 2.5164735 0.97046286 0.06945924 0.98307276 0.4518365 0.21216214 -0.6199602 0.5561297 3.4698203 -2.7944133 -1.6069888
or 0.8296881 -0.34714368 -2.5464134 0.48583335 -2.6084204 -1.3824694 -0.12369433 -0.6339693 1.8256819 1.0175194 2.2985518 -0.6309396 -0.91518354 1.199956 0.47632122 -3.261937 -0.7655466 0.4746558 0.68773854 -2.4224243 -0.45426062 -0.8510639 -2.8450563 0.5916914 2.027901 -1.7265391 2.22604 1.4229463 1.3427684 -1.4282291 0.14183588 0.21299066 0.8906672 0.496028 1.4266396 -1.8481871 -0.0064780377 1.7985237 -1.2165791 -0.6596406 2.9265485 1.2985272 1.3751899 1.546886 -3.7125032 0.49671623 -1.4079792 -2.0669875 -1.1029289 -0.684739 -2.5885234 4.2484245 1.3267875 1.5442874 0.83158255 3.383617 -0.88719714 1.8644519 -0.8019903 1.6810114 2.544305 -3.2937365 -2.4271784 1.6692046 0.20210905 -0.118233755 0.7567802 -1.3515403 1.8217926 4.207548 1.4985111 1.1122383 -3.7898204 0.5222017 1.7675823 -2.7953799 -2.284043 0.9368433 -2.2245605 0.7938882 -1.0270677 -2.8136568 -0.86404383 0.7588452 1.7727742 1.2411014 -0.59077907 -1.1241994 0.39851362 -3.2816172 1.3939012 -0.5194399 -0.008617803 2.4870033 -1.4887868 -2.7048264 -0.80488026 -0.68351674 1.1749704 -0.53326315
could 0.34286526 0.6752663 0.16603462 0.3083473 1.0171436 3.628796 1.8797315 -0.04176764 2.9114676 -0.3679397 2.8847575 1.0401793 -2.6651566 -0.43021652 1.9026293 -0.40013796 1.8212445 -1.6476498 -0.80194485 -0.14698693 -1.3575977 1.2782012 1.1488653 -2.7579665 -1.1918792 1.6206084 -0.12949781 -1.0272229 1.6697919 -3.0971992 0.5990103 -1.7634404 -0.54368186 -0.2852003 0.39629447 1.5680755 -1.4348913 -0.45797285 -1.776451 2.1994708 2.0538783 0.13721952 1.0112907 -0.9246134 -2.724849 -2.2799459 -2.4136825 -0.3414635 -0.080240324 -1.0800904 -0.9169588 2.3908534 1.1831937 -0.1550206 -1.9414678 2.1042192 1.5166155 -4.0912647 1.0562378 -1.044723 -0.5284753 0.65178806 2.092119 -3.9554453 2.9115636 -0.27818802 0.16942869 0.0449314 -1.1101425 -0.32776693 -2.8436522 -0.27555928 -1.4292718 1.2951363 1.8222404 1.736648 -1.1421046 -0.9377404 0.22173312 -1.0629892 0.695438 1.4635639 -1.2158879 -4.125308 -0.3252508 -1.1061496 -0.7326179 -1.607287 3.4350507 -0.40613955 2.4600656 -0.35003757 0.9651897 0.70836186 0.88798803 -0.82258326 0.28907758 1.7769867 0.72074825 -1.3022846
queen -1.9171253 -1.6330094 -0.8956095 -0.1612029 -0.6978671 1.1865546 -0.3270975 -0.7699842 -0.22539623 1.036464 0.39768696 0.24214935 1.6454115 -0.19631524 2.755417 -0.98275673 1.1042202 -0.29877168 -0.5702114 -0.2809957 2.4211047 -2.1565626 0.4164489 -3.3397913 -0.47484335 -0.263295 -1.8554926 1.7334459 -0.027757907 0.17663851 -1.5223603 0.7416795 0.36050382 0.58803254 1.3778006 -0.31702638 0.1674256 -0.100107506 -1.5265272 -1.1376765 -1.9254276 -0.5674989 -2.0441668 0.83676606 1.1345602 1.1686864 -1.8014311 0.80609727 -0.77862966 -1.0177809 0.16378106 1.7260902 0.1579888 -1.3750914 -0.8848422 -0.9311093 -0.10654345 0.13390344 1.2922281 -3.6526253 0.4226341 1.4251481 -1.4651115 -1.5800636 -0.82003075 -1.0792217 -0.046164382 -0.15888916 -1.5240846 -1.8401413 -0.20852804 0.6196284 -1.3191093 1.848075 -0.62875175 0.5012923 -3.4790037 -2.4541395 -2.0675943 -2.1160676 0.5854412 3.070894 -0.47454023 0.4198934 1.7228098 3.7729943 -2.5528026 -0.31838956 0.8904311 0.71289355 -1.7958272 -0.6077809 0.1228279 -1.3694389 -0.8892048 -0.27150384 2.2819855 1.904725 0.9105952 1.5085124
thought -0.04948868 0.5585478 -1.5540242 1.5652449 0.51289797 0.57424265 -1.776512 -0.9002265 0.011099512 -1.4230925 -1.2259866 1.1759917 -0.94889396 -0.48882273 0.6124468 1.0281205 -2.128824 -1.0033158 -0.39524013 1.2127197 0.54014194 -0.4485937 0.4723689 -0.41894826 0.17265315 -0.03471805 0.4331216 -0.035068147 -1.4935495 -3.021758 -0.6913583 -1.5564873 -1.060948 -2.0604665 -0.81033623 0.6897362 -0.51433635 0.9156282 -0.04085867 -0.6093729 0.09114857 2.002318 0.8776239 0.61166996 -1.0883236 0.0015522586 -1.1472356 -1.0760119 -1.3796843 1.4101388 -0.48890385 1.042452 0.57619685 0.6285136 -1.2924215 1.4206758 1.4092005 -0.6906386 -0.7081198 0.34980607 1.9701744 2.5362258 -0.80436057 -0.23146084 1.7249852 -1.567414 -0.4037731 0.5260537 1.0484157 0.9311439 1.3122026 -0.60261464 0.8255136 0.18740034 -0.91824526 -0.34446073 1.0878475 -0.046182077 -0.44630802 1.3341575 -1.7818834 0.99816656 -1.062039 3.7668815 -0.018632576 1.6329637 -1.1096958 1.7506027 -0.17937043 -0.39363 0.44542184 -2.5895574 -0.7267443 -1.7291131 3.1279511 0.3386202 -1.323021 1.6283951 -1.6734371 -1.2172668
off -0.9368929 -0.5098483 -0.8228878 -0.05223905 3.569351 -1.1252596 -0.6373341 -1.6527333 -0.64271253 -0.18049812 1.4987482 0.49856916 0.1478439 -0.0018152901 -1.4527557 -2.0126762 -0.008749979 1.2831594 0.3088065 -2.7267902 0.20571323 -1.527852 -1.1834326 -1.8001488 0.8155121 -0.5179402 -2.2080429 3.8345706 3.964212 0.014076675 0.5251102 2.459227 0.5660834 -1.5982386 1.9502431 0.19671798 -1.9547399 -1.4224695 -0.24196658 -1.0984949 -0.7402791 -2.435431 0.04682729 -0.14195584 0.54108715 -1.7297399 0.74605054 2.9529943 3.4110377 -1.6638303 1.73682 0.5107907 0.51329815 -1.2331415 1.0569507 -3.124707 -3.0383878 -2.1095364 0.13714327 -2.8964152 0.6008785 2.4848871 0.8423129 -1.4644889 -1.8615909 -0.60448146 -0.6321483 1.8632623 2.5410643 1.475083 -2.1487212 -0.54910207 -2.9277287 1.2442261 -0.13786516 0.91215855 -0.52766883 -1.6429472 -0.9881034 0.80717254 -0.0812079 0.3195231 -0.36091048 3.2206328 0.16029617 -1.1362565 0.14557455 -1.2123733 -1.0910014 -0.5863657 -1.0991791 2.9678648 0.42187232 -0.7698038 1.6185932 4.62253 -3.3685107 1.2741408 1.4843265 1.0285431
time -1.9132063 -1.7733395 0.30880237 0.6092547 1.9221569 0.26621 -1.0618985 -0.8916831 -0.70790553 -2.0215487 2.909048 0.61157817 -0.27988017 1.0109557 -2.9582658 -1.6250422 -0.23660113 -0.8137558 -2.405251 0.036214743 -0.55542576 -1.9267583 0.3884874 0.08314409 0.90083975 0.6613517 -0.27567545 0.21962772 -2.213047 0.8853398 1.8930308 -1.1507688 -0.24470697 -0.653897 -1.1686474 -0.29899663 -0.8507379 -0.73306984 -1.8133738 -1.5032248 0.8869025 -1.983398 1.232056 -0.70541173 0.17429587 -1.2528408 -1.4979275 4.4612284 -0.9878243 0.59957045 -0.9489048 0.9800762 0.43749228 -0.36542365 -0.74295765 -0.5241881 0.6391064 0.96437365 0.036616087 -0.007590045 0.6125233 -1.5478692 0.78907585 -1.4502084 0.7684866 -0.9604341 0.53982943 0.008154293 0.79392844 0.7022469 -0.041259006 0.059312016 -0.12286866 2.555458 -0.08204686 -1.0084448 -0.36018947 -0.5185384 -4.222424 -0.53590906 -0.009896155 1.1657289 -0.3842111 2.2337682 -0.42778307 0.08804006 -1.0921426 -0.7471547 3.15166 2.3799176 0.11320435 0.30472365 -0.37382466 -2.3052094 -1.0980631 1.5166649 -1.4881364 3.1292872 -1.2751667 0.6566297
how -0.95788854 -1.0552918 -3.411511 1.6860869 1.0642322 1.5534405 0.9733194 -1.6663162 -1.7337453 -0.19583075 1.1511655 0.15911894 0.60954386 -0.5133423 2.9827845 4.040465 0.9036747 -4.0428343 -0.1093544 0.25520244 2.854841 3.284035 1.9688828 1.6164243 -1.859618 -0.4001944 2.7372699 0.031423897 0.26045555 0.16840085 0.7673956 -1.4073083 -1.3365424 -1.1436414 -1.2519164 -3.2745576 -2.417025 2.3806984 -1.6666781 1.2073091 -1.7971512 -0.6840683 1.7450215 -0.9538481 -2.048507 0.4326557 0.16302478 1.6389807 2.4052737 -0.90709955 -1.2944862 -1.8353318 1.3245716 1.9301972 -1.2399484 1.5718883 -0.46845606 -2.5296173 1.648219 -1.176132 2.081156 0.054298338 -0.6434226 1.9057677 0.5479919 2.5557609 1.828976 -0.21952884 1.0088025 -0.59108657 1.8858993 -2.682471 1.6064839 1.3216157 -1.4545182 0.1391449 0.7149826 -1.8659173 2.4494147 1.4845678 2.1907961 -0.089074984 3.7121055 0.67625916 -1.3122885 1.6098047 -3.596805 3.4050164 0.7082817 -1.17644 -1.4526922 -0.8927948 -3.4812434 -0.9872393 -1.8725065 1.0063363 -0.59009415 1.0496552 -0.08596052 -0.82550526
me -0.48522654 3.4543393 -0.37218726 -0.7319887 -0.6870918 0.20354378 3.2936215 1.8724172 -3.3220563 -0.86414033 1.473117 -1.3681546 0.620086 -1.2980982 0.7973441 0.353891 2.179616 -1.3923627 -2.2945035 -0.83115464 -2.4294271 -1.0634656 0.32806617 -1.04738 -3.2113075 -0.6107938 -2.1049058 1.4828806 -1.0792375 -1.3555034 0.90999514 -0.69167024 -1.441682 1.4411842 -0.6617018 0.05580054 1.2425504 0.77861816 -1.382042 -2.1838584 -1.4332988 -0.19785808 2.138507 1.5613203 -2.6625094 0.95773304 0.5707792 -1.1701243 -0.79628605 -0.97951365 -0.045697216 -2.6419902 3.0165462 -1.0622189 1.813623 2.7468207 -0.5109352 -2.153658 -1.7186722 -2.0284884 0.16343588 1.6735334 1.5937788 -5.0587826 1.4785287 2.3907728 -0.8417308 -1.9017015 0.8560047 0.3377531 -0.8756137 -0.018676646 -0.29833665 -1.2725327 -1.9197671 -1.1664184 -1.3814671 -0.90713626 -0.267179 -1.7196325 2.4607997 -0.30399 -1.08805 -1.0231546 1.7613096 0.46738362 -2.3309405 1.0184904 0.73888737 -0.23397498 1.6621493 -1.4437737 0.27732143 0.75217634 1.6100551 -0.099510245 1.007846 1.6522386 -2.0666373 -2.2930486
into 2.684421 0.2146023 2.6543162 -0.27843454 0.7856641 -2.0780337 -2.3687406 -0.04061227 -2.6833117 -0.42953524 -0.9555174 -2.1732843 -0.98325324 2.445586 4.629138 0.91521525 0.9272356 2.0145295 -2.9110134 1.4392079 2.112099 -0.16958569 3.708741 -0.005109155 0.9895023 0.110230386 -0.202565 3.0294743 -0.024569029 -2.2862675 1.0229802 -0.525521 -0.6172084 3.6623602 2.8752952 -0.6740554 -0.26746926 -1.0019894 1.1341541 0.83127284 -1.9497087 -2.3618095 -0.9217003 -2.1626163 -2.7182536 0.34101325 0.8361556 -0.8557852 1.802587 -2.8289428 0.25709134 -1.932434 1.8551273 0.12878284 -0.16594438 1.656392 1.5755932 4.174186 0.32290918 4.6344333 0.5123403 0.7429453 -1.8513402 -1.4471388 0.781128 -0.8283403 -1.223828 -2.5181596 -0.2268939 0.6925759 -0.5809762 -0.6416451 -4.99012 -0.5664678 -0.36455494 0.9043701 4.546777 1.1400644 -0.2314099 1.4382094 -0.76922095 0.07436091 -0.60797507 -2.4323194 1.7967122 -2.4351249 -2.5912044 -1.066787 -1.5582012 1.746725 1.7633775 2.3087423 1.1483283 -0.3370759 -1.432866 0.4673325 -2.322432 2.9414349 1.6832798 0.49196786
see 1.0354723 0.8873374 1.1274663 2.6109967 1.7279001 -0.23903091 -0.01706599 2.6027927 0.16480525 0.29686552 1.239155 -1.5013046 0.9484134 -0.24839696 2.1377206 -0.015678616 -0.057969138 -0.34353557 0.54290587 0.12528428 -0.80855036 0.6626773 2.1327348 -0.338082 -0.78727037 -0.8286774 -1.137687 -2.6406581 -0.55976444 0.45377195 0.8067808 -1.1158556 1.1671895 -0.8268145 -0.29702678 2.9731839 -2.0643182 0.58851683 0.936484 0.15035166 0.13318011 -1.8558081 1.6394657 0.47194612 0.91695875 -0.1947009 -1.9644411 0.63258266 -1.4146543 2.05286 -0.50629014 -1.0662059 -1.5521767 1.0692388 -1.5188836 3.0519676 0.78582746 0.2001462 -0.8121217 1.8900021 -2.9894555 -0.55826837 1.022689 1.2891042 -0.40828973 -2.6939757 2.339919 0.35941488 -3.1735938 -0.2021425 1.2211834 0.15790452 -0.31305203 -1.2487396 -1.819384 -1.269797 0.24667095 -0.26563707 0.7466513 0.5438336 0.765628 0.24009255 0.44206396 5.1932106 1.7355324 1.4199717 -0.71135205 0.35917392 0.16360791 -0.7570325 2.0363595 -0.90925944 2.0547812 -1.5732406 -0.8254003 1.2666668 -0.94428694 1.9364638 -0.4121154 -0.63231075
well -2.821599 -1.5584264 -0.70420814 2.5111728 -0.8661723 2.2109747 -0.41884702 1.200165 -1.2860088 -1.0358241 -1.0037814 0.33185604 0.36031008 -2.0595312 -0.32370135 0.7934962 0.12238455 0.7697209 -0.41204852 0.13617176 0.018558132 0.583988 -1.7396169 0.66535556 -0.42019445 0.9506443 0.24215704 1.2220082 0.6830691 -0.8616681 -0.18511987 -0.9994132 -0.8368135 -1.7717844 -1.1229441 -0.31007153 -0.44536474 1.1394483 0.8778405 0.16736083 -0.40732282 1.9433786 1.1464283 -0.73409575 -0.24268314 0.2170912 -1.0575354 0.23555045 -0.5464903 -0.44660333 -0.28474975 1.0714821 2.0792816 -0.8981826 -0.6993589 1.5724548 -1.7767723 -0.81406397 -2.9427745 1.110069 -1.5985138 -0.61158085 -0.50973123 -0.3780364 1.6247791 2.831397 -0.43321088 1.0339594 3.4934125 1.441611 -0.8144406 -1.2932062 -2.6091194 2.5895545 3.3848689 1.0390741 -1.3584833 -0.85430354 -1.412571 0.5503987 -0.7731063 0.43787336 0.7489066 0.75979275 0.81703776 -1.1293176 -1.8501662 -2.249879 1.1370053 0.011097262 2.7534237 -3.0596397 -0.49385795 -1.7491335 -2.0615416 -0.89503026 1.281465 0.19670282 -0.42433292 1.1433395
did -1.3319659 0.036902197 0.37070864 2.9426389 0.60159934 0.6192911 2.8835175 -0.8584351 3.3349068 0.2366847 1.6714547 -1.0622351 -0.39468908 1.9689265 2.605772 0.5316623 -2.1841664 -1.5193166 -0.2402886 0.31782165 2.2448914 2.1884413 0.99254364 -3.0711806 0.2809751 -2.145098 0.13360687 -1.3924553 -2.539178 -1.925282 0.63858324 -1.2804111 1.0272635 1.0310335 -0.74580944 -0.43179396 -0.90350664 2.2593591 -2.114363 3.5296373 0.47306278 0.08522196 0.7767707 -1.8908045 -1.4802147 -1.024182 -2.3196576 1.2981827 1.5245589 0.87297404 -1.2265255 -1.0791647 -2.4756918 -0.38174292 0.40101764 -0.4375333 -1.2183572 -2.399538 -0.6437839 -0.85620564 0.70720905 -0.8698229 0.8836996 -0.7833461 2.1794126 -0.94657487 -0.6371015 -1.5224979 0.79793626 0.57999605 -0.2828337 0.13826434 -1.7199745 0.22629741 -0.9503432 0.294028 -0.25344405 0.10003616 -0.24426442 -0.9992373 1.7002811 0.5806295 -2.361627 -0.57997286 0.68985945 -0.027794188 0.31949085 -0.95713687 2.027589 -1.4331557 2.1337357 0.77893686 -0.9676074 1.4655713 0.2303328 -0.104889326 2.7981067 2.508341 -0.6685317 -2.1745174
m 0.949557 2.793708 -3.856201 -2.715836 -0.5460885 -0.8505009 -1.8978562 0.44695473 2.2463634 -0.5210713 1.311711 -1.042388 -0.70184106 -0.50146234 2.673999 -0.15541863 -3.8885376 -0.70130056 -2.159284 1.9702668 2.0007527 2.9342864 0.39563957 -0.40245932 0.69306004 -2.3954732 1.6059531 -2.2420769 3.1750565 2.6074781 -1.3216178 0.27829075 1.0750017 0.09775383 0.014585095 1.059393 -0.09679124 1.6237729 0.38249025 1.0852349 3.8244045 -1.8859378 2.7300112 0.44312835 1.5365853 -0.8764852 1.2269064 0.94983983 -0.15259661 0.8294413 0.6378017 1.0462258 0.56715775 0.27288872 -1.6370667 0.181854 1.7881428 0.9361531 1.7537036 -0.33782557 0.87626755 2.09014 -0.6556287 -2.5384135 0.08931406 1.8359276 1.0395203 -0.2963287 0.88399446 -0.5253953 2.2435315 -0.195486 -2.0169342 -0.45504934 0.2249589 1.9026153 -0.5926957 -1.1883485 0.77835697 0.3382325 1.2186288 2.1338582 -4.0054965 0.13601634 -0.4778861 -0.5239181 -1.1629188 0.17635883 -1.2622195 0.20088178 1.592023 -1.8073367 0.33063844 1.0581084 3.3722186 0.16560648 -3.0089276 -0.5128251 0.7128242 0.96963954
who -0.10472597 -2.4874613 -0.010522532 0.4184708 -1.536916 -0.12251175 -1.33599 -1.9377956 -0.44088045 -0.9580925 0.83651155 1.7200558 0.54271656 -0.9331598 2.7124128 1.6953441 -0.19015883 -3.6353369 -2.264585 -0.45807984 3.7159662 0.602725 -0.2687072 0.3893565 1.073598 0.6748372 1.730424 -0.6010636 0.72604924 -0.9707 -1.8535299 -4.044791 -1.0902517 0.7100421 1.2775372 -0.90935355 0.14154823 -0.57470644 -1.4446502 -1.0959934 1.0788077 0.9002193 0.40445364 -0.3390122 -0.5396056 -0.20560005 -1.460152 0.885217 -1.9597497 0.6429549 -1.3080398 -0.21300755 0.7692547 1.5636976 1.6982374 0.13475078 -0.6764641 -2.3273335 -3.1878903 -1.1142107 -2.4633043 -0.8961107 -1.2438183 0.53589267 -1.8101633 -3.0863914 -0.40798137 2.667936 1.682777 -0.76118535 -0.21277188 0.40972114 2.8403304 0.7998745 0.82220364 1.6745511 1.8212545 1.1578916 -1.3899738 1.1432521 -0.7971122 -1.2657629 0.7439451 -0.29605535 1.0158402 1.1729465 -0.22515514 1.7416788 0.19702458 -0.2277357 -0.12884317 1.447446 -1.3296587 -1.6113347 1.4528303 -1.0215449 -0.16374779 1.76845 -3.0557487 -0.32799676
can -1.3497288 0.1787621 -2.3042817 2.738387 0.6887017 2.2822943 1.9982646 1.4306779 -0.27288267 0.4577381 0.3891509 -3.1387215 -1.7799176 -1.4378428 -0.57028306 0.0405308 -0.2991562 -3.7800553 -0.27009657 -2.151631 0.281237 -0.003714715 0.5174415 1.24355 0.025154937 -1.3652548 2.0255067 0.2784574 0.5346792 -0.82677716 1.780808 -0.25934723 -1.1438062 1.7735151 -0.2558296 -0.17876449 0.3475209 0.3409669 -1.692112 0.14533184 0.14598162 -0.32231906 0.79767233 1.6751093 -1.3562851 0.4799618 -0.76413506 0.8671367 -0.09574575 0.901649 0.62857854 -1.747248 -0.5733381 2.7378042 -0.29271013 -0.24233557 -0.81837636 -1.9595032 0.1279147 -1.4500632 0.465082 -0.87257296 2.5131454 -1.7329676 2.248882 -0.3704076 -0.4495672 -0.33187371 0.5577174 -0.13089286 -1.8290836 -0.03530832 -0.70193815 0.36239693 1.6020958 1.7927123 -1.6364405 -1.4808575 0.5517628 -1.3262619 0.8208843 1.872129 -3.3273058 -0.105315186 -1.7497102 -1.4666342 1.1187901 -0.31230167 0.14749777 -0.17159791 3.6470919 -0.19309585 0.40897727 1.8112215 -1.3707932 1.1995398 1.4599688 0.46542144 -0.50100476 0.36640486
king 0.10534887 -0.76080745 0.83914566 -0.074032806 2.1627982 -0.4691345 -1.2117641 -2.9499807 0.57831794 -0.24474005 2.2413368 -0.42625946 2.226043 1.0939574 1.7783701 -1.1568124 -0.36914274 0.7339974 -1.0771947 0.12538387 1.0912743 -1.2506504 1.4144843 -0.49196392 2.4923513 -0.9260265 -2.950853 -1.0416795 2.4383636 0.813946 -1.6458502 1.2998813 -0.82837063 0.33885205 0.13520049 -1.0988691 1.1456398 -0.68438804 0.6215807 -0.40576994 -0.71290135 -0.9873276 0.07866398 -1.1405069 0.7988247 -1.4874669 0.18749525 3.374897 1.3151064 1.1352136 -0.004152248 -0.6327316 -0.88587713 -0.1341185 0.042197548 0.059523568 1.7397462 -0.27495417 -2.3073874 -1.0750575 -1.0964683 0.38967833 -2.9570441 -1.2797533 -0.051190183 -1.3734 -0.78917146 2.2380657 -0.8139496 -0.52373207 -0.4440763 1.9638424 1.0011872 -0.4182316 -0.23960122 0.6808814 -3.0829034 -0.95621777 0.10876982 1.3287936 0.8619026 1.7170941 -0.5938022 -0.18014342 1.2920328 -0.16291542 -1.6932663 0.7726664 0.74678487 2.888929 -0.62792325 3.2799609 0.11117899 0.40224665 -0.25703636 -0.036928292 -0.36984506 1.184361 0.5838558 0.22462305
your -0.74661833 0.026482895 -0.9180871 2.6536887 0.738354 2.3256035 1.3694407 -3.7480078 -3.7318816 0.6598635 -1.0991396 -1.5667393 -2.7915154 -1.2127132 -2.0895898 -0.059027728 1.001993 0.9594726 0.2677196 -2.5360146 -2.4627929 -0.0071869357 -0.5168528 3.925782 1.2695961 -2.3794894 0.9153956 4.0927052 -2.3024251 0.4086415 0.9574709 1.5286422 -1.8290387 -0.9599436 -0.6898216 -2.6542842 -1.7523605 -1.8456981 1.5148536 0.721808 -1.2326132 2.960593 3.64314 -0.0004363753 1.6792938 0.083021924 0.6813606 -1.337178 -0.039940264 1.8005427 1.3261099 -1.5637138 0.29436877 -0.07970825 -0.5340144 -0.92329246 -2.226663 -1.4008017 1.9221706 2.5375779 2.697341 1.645537 -1.0116771 -0.67497706 -2.5632968 1.2249807 -2.4320111 3.146794 2.842554 -1.3323174 -1.6457562 2.7846959 -0.5975805 0.646015 1.2903167 -4.208155 3.1675847 1.0698614 3.737909 0.3581244 -0.75880885 -0.2837286 0.8735916 0.19942793 -0.7276064 1.6236502 1.9119918 -0.16692717 1.3375808 1.961557 0.27087045 0.3788819 -0.13796769 1.6001438 3.4068584 -0.17685477 2.7541583 -2.838344 1.3094008 0.44642875
don -0.43487597 -0.95535225 -1.1902928 -0.078242145 -0.49220717 -0.30557522 1.7414719 0.16588135 -0.3756058 -0.33622745 -0.27421018 -2.5178404 -0.82695866 -1.5137314 0.93094605 -0.64352334 -3.4165084 -0.40947306 -0.8554292 -0.7164588 0.0019431594 1.1395344 0.066071115 -0.25274515 -2.0393167 -0.8499973 1.1012521 -0.9662413 0.20249656 0.5920799 -0.74491656 -0.6085677 -0.23141497 1.0355433 0.3638685 -0.6431523 -0.60357517 0.7482849 -1.0747184 0.013372398 0.5498556 -1.2771794 0.46065614 1.2264391 0.8040191 -0.3881293 0.7278783 -1.4315543 -0.4416039 1.0045092 -0.1817476 -0.04546682 -2.1426487 1.4123421 0.20774305 0.9383524 -0.50799793 -1.8815866 0.57174253 -0.21125422 0.36403877 0.15301834 1.1822408 1.4618969 1.9548293 -0.15057015 1.279034 1.3114969 1.6243197 -1.4221903 0.67197114 -0.473839 -0.52459013 -1.44744 0.45242986 0.27974933 0.05011324 -1.2000304 2.2369528 -1.0965441 -1.3715568 0.17968006 -1.3180608 1.0579058 -0.70579976 1.9868395 0.015834449 0.1542831 2.0434597 -1.3347013 2.4354477 -1.7920216 0.49412197 -1.5543777 0.93001133 0.5165237 1.0116905 -0.9781763 0.88882726 -0.5595627
now 1.1633776 0.7702159 0.35492197 2.7091944 -0.36230576 2.1889958 0.25796825 0.3507336 -1.3992901 -0.3828391 -1.5751404 -0.5614983 0.024902476 1.6823258 2.1480417 -0.83845276 -1.0093071 -2.4085023 -0.4595131 -1.1635699 -1.387772 0.7151609 -1.3877095 1.1539829 -0.4504754 -0.73717135 0.9530778 2.032979 0.56369895 -0.3640123 -0.6073657 -2.7151113 -0.6329568 -1.8070306 -0.96313274 2.4134436 -0.10947296 -1.0311345 1.5834652 -1.198538 -0.21215793 0.5277744 1.1625096 -0.5550316 0.5754674 0.08269224 1.258106 0.06698351 0.3839883 0.72913045 -0.9649584 -0.55799264 0.07899315 0.2085234 -0.4168445 2.087423 0.3879879 2.3224924 0.34751186 -0.22041677 0.4108089 -1.3818973 0.2406222 1.6270868 0.25707638 0.7398377 0.40466908 2.450589 0.15363853 -1.4574698 1.6988559 -2.558871 1.7379268 -0.7777966 -1.5742407 -4.0252476 -0.6031713 0.07485458 -0.742177 -0.89304614 0.8604919 1.3587108 -0.8794826 1.4485594 1.3715361 1.41976 -1.5478504 -1.5184442 2.7610672 2.2082257 1.6008105 -2.1814873 2.2686439 -0.27161235 -0.9259054 0.07502223 2.988908 1.4232701 -1.9384403 -2.3258045
by -1.6912031 -0.38273764 -0.85456467 1.49502 0.8203932 0.46984696 -0.70406526 0.07239747 -1.9118028 -3.243535 1.0793235 -0.6343571 -0.16439651 -0.4913383 4.6622334 0.71569246 -0.47252697 -2.117585 -0.7421852 1.3022739 2.09685 0.2983323 1.203274 -1.3290415 2.0554743 -0.6821442 0.6114032 2.804866 -1.695297 -1.6970664 4.465687 -0.015791586 -2.4658809 0.13883151 -1.417534 -3.1178687 2.6507769 0.108062685 0.23825492 0.12955464 0.8797034 -1.4401178 -0.19335984 -0.3454554 1.0775945 -0.40486798 -0.4257686 -1.5469308 -1.7275784 -1.6270946 3.1167223 -0.48227236 3.3275523 0.7850594 0.69293296 -0.21056429 1.1875556 3.415996 1.0521543 2.6073003 -3.1467884 0.17446116 -1.1717 2.5393114 -2.3527198 0.33636814 4.078403 -1.0298786 -2.069626 1.0920799 -0.6807436 -2.3067465 0.54922545 1.3931445 -1.527851 -0.76238817 -2.8100097 -1.8373303 -2.0007174 2.5973287 -0.6932371 0.76983994 -2.3176577 3.0725076 2.4893248 -1.778417 0.41079757 -2.014221 -0.23461023 0.5177625 -2.109488 -0.75218254 -1.8201793 -1.9388627 -0.52592736 2.891455 -1.879936 0.530804 -0.43497866 2.1658442
turtle 1.113755 -2.1305594 -1.078605 -1.6596931 -0.28580883 2.222881 -2.9056594 -1.7676706 3.7164028 2.6263201 2.409536 -1.2680533 -0.022449084 2.8580325 1.3560374 -0.4435015 -0.57475823 1.8377566 0.24157768 0.44795987 0.8153955 -0.09452789 0.5589863 0.78187764 0.22010314 -1.3219036 0.43856928 -2.8238788 0.6025396 0.010556036 -1.8781403 1.1619173 -0.8458447 -1.031439 1.2025045 -0.46187216 1.1759735 -1.8399894 0.59990275 2.5515416 0.5630811 -0.79419917 -2.4415236 -2.1160626 0.8935737 -1.9529074 0.6812982 1.247848 0.07256928 3.2918568 1.1242266 -1.1667534 -0.2747042 1.3191679 1.101332 -0.75896525 1.37938 2.4174716 0.13774903 -0.14455077 0.945089 1.3432678 0.154589 -1.0751452 -2.6320257 -0.057704423 -0.8477811 -0.28053454 0.85151273 -0.021893235 2.726507 1.0832862 -0.12901779 0.8664037 -1.9326429 -1.4400637 1.5804945 1.064601 0.29032347 0.72089535 -2.2884407 0.6888135 -1.188231 0.6654281 0.21848193 1.5789287 -2.3021789 1.1163647 0.5329615 0.019954458 0.022952288 1.1581677 0.5380746 -1.3184621 -2.1538968 -0.2645995 2.141354 -0.22713494 -0.39115894 -0.007921069
began 0.07472618 0.39851037 -1.7239673 1.0365862 -0.35765895 -0.5153775 -0.2753279 -0.09311611 3.8317008 1.8437393 0.3481917 -0.39244223 -2.0064623 2.1496656 1.5014216 -0.42330575 -0.8621814 -1.3598067 0.13671404 0.66496664 3.748533 3.2052774 2.3831558 -2.0170803 1.2885239 -3.0022674 0.009002677 0.68139094 0.046995856 1.0098008 1.7944808 0.41854396 1.7394202 1.0217552 -0.33777642 -0.12559326 0.36359525 -1.7764815 0.5112839 1.4996865 0.040932428 -0.31500578 1.0994984 1.160882 0.38869232 -0.6281494 -0.50832635 -1.7815627 -0.8458236 -0.23322837 0.22543627 2.612017 2.9863667 -1.2084378 0.79365647 1.0427899 2.9265199 -2.516952 0.26187018 0.987726 1.1426126 3.2399004 -1.5918913 -0.7018932 0.62383276 -0.39176825 1.0049366 -0.88178515 1.7675781 -0.28870705 -0.2434146 0.6049785 2.3551018 -1.5920854 -2.832647 0.30085188 -1.2893786 -1.3047546 -3.7480738 2.4247751 -1.5175889 2.5403936 1.0353907 -2.27359 -0.2915386 -0.43817636 0.3025664 1.5723252 0.8925371 2.374054 1.1614913 -0.47714445 1.6363469 0.5222762 2.6346416 -0.61063516 0.11290834 1.9429379 0.5118767 0.86079407
my -1.546813 -1.4637015 -0.031627703 4.2872434 -2.3454378 -0.32956615 -1.6893176 -1.9681537 -3.074485 -0.7538617 -1.4799241 -2.9027476 -0.91079795 -0.42483273 -0.089757144 1.1683704 0.4195651 1.5869032 -4.0071125 -3.2208233 -0.022458363 1.0867221 0.2953342 3.6277034 -0.6839717 -3.0299277 1.2822961 -0.46762547 1.9823495 0.3599309 0.07004201 -0.7898241 -0.54958576 1.0178277 -3.2450225 0.8382327 -2.9434855 0.6948176 -2.2763991 -0.8613966 0.6535694 -1.3885913 0.30043566 -1.0260577 0.053248663 2.9703302 1.5456989 1.6418769 -0.29538447 -0.8138301 1.906851 1.5020021 1.7645518 0.30844864 -1.4012458 -0.2886471 -0.6954157 0.9698671 0.18159442 -0.74313307 0.34136978 -0.15319404 3.208613 -1.3351563 1.2180104 1.9228559 -1.5098209 1.2394302 1.2821006 -3.4538114 -2.5012095 -1.0620905 0.96618426 -0.35327592 1.643185 -1.4348006 2.9501708 2.374549 1.7050221 1.9526347 -3.1073742 1.5189914 0.41493803 0.630911 2.6527052 -0.9708818 1.6982251 2.8747847 -0.4696819 3.6723273 1.7272252 0.29611725 2.3678727 1.2126933 -0.6180734 1.0113264 0.49882206 -0.29626697 -2.0458524 2.3849487
its -0.43276045 1.181183 -0.64694226 1.7478774 1.5746181 -1.146828 -0.44528538 -1.9860543 -2.291255 0.4032693 1.5015296 -1.155267 1.0603583 -2.7761788 -1.5034008 -2.728064 2.0393312 1.3232644 -0.2974447 -2.809341 1.4315274 -0.27495566 -0.01907044 1.3738923 1.6036862 -2.0122266 1.0192723 0.8958655 -1.722011 1.5583667 0.5464247 -0.43555775 1.4488279 -3.3479838 0.86562866 2.093893 -0.7961107 -0.28338587 3.5769498 -1.3405476 -0.26573732 2.3542132 0.3267797 -1.760621 1.0972936 -0.004492161 3.0079675 0.85957164 -0.67833245 -1.9851317 -0.6453995 -0.28579006 4.993646 0.6613392 1.5678114 -0.73558646 2.1263783 2.8890002 1.8736933 4.9978223 2.0272655 2.1118906 1.9289917 0.6835381 -1.8502115 -1.2536294 -2.1915677 2.7521966 -0.5222766 -3.7227125 -3.7525694 -1.3436453 0.35300547 -4.8200617 -0.92867744 -1.8955135 2.2320085 0.9183243 -1.9807771 -2.2645946 -1.5502676 0.5276388 0.848703 -1.1483123 1.8492637 -1.4768583 2.0163705 0.019580752 -0.5936845 4.579414 -0.44817275 1.0428909 1.4132222 -0.2509718 1.3421204 0.75781167 2.3588946 2.3413405 0.45225203 1.948699
ll -2.848277 -0.31299546 -2.0470665 3.7117949 0.08358822 1.268906 1.395118 2.134409 -1.2812207 0.018798651 -0.25151712 1.0311909 -0.5728967 0.9521367 0.5137735 -1.5105065 -2.1012347 -4.326661 -1.757806 -2.2274067 -0.6718962 0.5230469 0.22474347 -1.0017757 -0.5213556 -0.32670996 -0.36836293 3.9792526 0.9978876 0.34940478 0.32630652 -1.6064961 -1.4817234 -0.7329572 -0.5492457 0.44784695 -0.7294268 0.5291046 1.5248924 0.77042854 1.700227 -1.8859328 -0.13986225 -0.5182764 -2.6576605 -2.329887 -1.5141473 -0.22683245 -0.2834087 -0.70377696 2.9340138 -0.078994386 0.9571281 1.0503305 0.37270793 -0.7394126 0.9195679 -1.1568135 0.25958425 1.2878357 1.1091356 -1.1372186 -0.15946746 -4.3594356 -0.86653304 -0.25753328 -1.9591086 -2.2293842 -0.9395014 -0.09297348 -1.4046657 0.13485193 -1.7893838 2.1995432 -0.016237289 -0.6105642 0.94376487 -0.34400958 0.650753 0.40089518 2.0732973 0.12596492 -0.0042887856 -2.0844111 -0.5403031 -0.9304228 -1.3937593 -1.2764642 1.4232978 0.7993161 3.0454478 -0.52883035 -0.5419961 -0.6866769 0.35570633 -0.7719812 2.031396 -0.7117226 1.0212048 -1.341413
an -1.4397924 2.1891203 0.15505274 0.38216686 -1.30464 3.7791555 5.201511 -3.7410204 2.848229 -0.27611533 2.4951546 2.6833704 0.5128058 1.0910152 -1.5716971 -0.008263569 0.92423594 2.8532279 -0.09333564 1.2658665 1.5192175 -1.6766273 1.2712224 -5.3394823 -1.9842315 -3.1986656 3.1252952 0.7994832 -1.1732212 0.9967625 0.9553564 2.6850512 -0.47476384 -3.5369542 2.5201232 -2.1063986 -3.500635 -0.48679873 -2.505944 -0.7016993 -1.0804608 -1.4972337 -1.2184647 -0.27974734 -1.4733183 1.0134257 2.6746402 -1.5452563 2.427848 -0.044012208 -1.7311143 -1.3854609 1.0877631 -0.84576863 -0.5983674 -1.5466584 -1.1993268 -2.7151444 4.1129823 1.826052 1.9567492 0.26412976 -2.4395218 0.39855793 1.2094296 -0.4509643 0.4219456 -1.7153554 -1.625157 -1.3869609 -1.5054195 -1.7378485 0.7822848 -1.1623704 -2.249439 2.3208892 -0.09656371 2.4147587 0.79086155 0.2146999 0.3277921 -2.4464293 3.5574856 1.4717474 3.2782552 0.7658829 2.914104 -0.294257 -1.554152 0.49019015 0.01923659 0.5455899 1.7520869 0.7895415 0.8098711 -2.941969 0.9025969 -0.45186675 3.5667913 1.569555
way 0.25028217 -2.0347922 -1.1293428 1.4860423 -0.40291667 1.5465114 -0.36841765 -0.60714734 -0.15284587 0.23536074 1.947856 -0.41885248 0.7783702 -1.5259931 0.17283715 -0.10203964 -1.4862697 -2.1395788 0.9924936 -1.8227562 -0.29020852 1.2784877 0.76404446 -1.3939775 0.58287746 -0.7861841 1.694424 2.1625993 -0.8019038 -0.8920514 2.3636293 0.48151565 -2.6047769 0.031151643 -1.1827823 2.1890724 1.7341605 -0.7128416 0.055199493 0.69891137 -0.7362196 -2.3871913 2.118861 -0.035792843 -2.4993181 0.30629683 -1.9250063 -0.27275229 -0.025634626 -1.7189714 -1.5734171 -0.9588316 2.1908052 -1.1841583 0.04166742 -1.1041106 2.33591 3.4920633 0.06315482 0.060996484 -0.9946295 0.4336655 -0.8487778 -3.0363297 -0.82717687 -1.8144001 0.5634043 0.47447976 -0.40408272 -1.8596632 2.0505772 -1.1582484 -2.6226335 -0.7971397 2.4649835 1.8309581 2.2407558 -0.75239056 -2.2435083 -1.6610132 1.5448247 0.4917774 -0.34921104 -0.9465187 -0.24563251 -2.9395807 -0.90391815 0.7212235 1.8347167 1.4312787 1.4991931 -3.1400993 1.1409031 1.1762902 -2.6654494 1.6095248 -0.1541905 0.71036834 -1.9531574 0.058249965
hatter 0.44361523 -0.9872201 0.7421498 -1.1905162 2.8976722 0.8456891 -0.63601756 1.128604 -0.0756541 0.020656 0.4791989 -0.6830222 3.3053737 0.73349226 2.4013479 -1.8638644 -0.85031223 0.13668348 -1.1582254 -0.91684186 0.8013631 -1.823936 0.48084646 0.004678516 1.7060553 -1.2501558 -0.24316734 -1.2666302 1.202283 0.47572798 0.22014776 1.4237542 -0.8692822 -2.2802196 0.36253324 -0.42767063 0.700228 -0.023238031 0.07825801 -1.5345937 -1.0433369 -0.48944813 -0.16844513 -0.73807997 1.5369512 0.74123603 0.43772405 1.8051428 1.4751291 0.7647298 -0.9783199 0.18267506 -0.24218522 -0.21687153 0.57464695 -0.4554169 -0.78300476 0.6622189 -0.8206037 -1.3356328 -0.7978405 -0.36467493 -2.2706933 -1.8943447 0.5259423 -1.6258793 -1.082813 -0.23329681 -0.5437967 -1.7902014 0.8195128 -1.009775 -0.6112597 0.034538392 0.0090119345 -0.71028155 -3.250406 -1.2085521 0.2808305 0.22357908 1.6944532 0.7388873 -1.0627934 -0.7722639 0.20848398 -0.5769632 -2.4598486 -0.18388225 0.3422848 0.39559618 -1.7530552 1.2245351 1.9948447 -2.0726938 -1.7080133 0.76351833 0.42709607 1.4868318 -0.115273766 -2.3068128
mock -0.53512657 -0.5081923 0.67879206 -0.8277741 0.2906291 2.061639 -0.32793346 -1.0306786 -1.292793 0.11524935 3.495282 -0.6287111 0.30171075 1.6618229 0.8887806 1.0725824 0.27510595 1.9778801 1.2960967 -2.8720102 2.9620783 -1.1801367 -0.29688597 -0.5267401 0.6069658 -1.1807795 0.9718315 -0.97471005 1.5562308 0.26595843 -1.2759085 -1.654557 0.48259658 -1.4578899 -0.7322398 -0.11186122 -0.27904823 -1.2100364 -0.58129126 -0.5825808 -1.6574689 -2.2253883 0.12956926 -0.73823744 1.9159458 -0.63209367 -1.0038581 -0.70196265 0.23120832 -2.051574 -2.3171573 1.4880575 -1.6428376 0.2818068 -0.51542085 1.6327904 -0.8104918 -0.7451479 -0.69984394 -0.9032953 0.4420614 -0.55710846 -3.3179846 -0.3688116 1.5334724 -0.62669057 -1.07863 2.2591395 -0.19203301 0.13491398 1.8483814 0.21273941 -2.0376086 -0.24352977 -1.4828626 0.7129447 -1.8440827 1.1093489 -0.37378794 -0.10957525 -0.2956058 0.4740823 -2.7673545 -0.08537079 0.91074485 1.0642891 0.27347678 1.9733965 -0.109869 2.4316669 -2.4803584 1.8505776 -0.83810794 -0.95670074 -1.5686712 0.34620917 0.97177094 -0.07781677 -0.58908284 0.038089376
quite 0.007861132 0.6126429 -1.6787771 -0.45147172 -0.7168848 -1.4014622 0.79226524 3.2334554 0.58541214 -1.4989786 1.1615117 0.6719754 1.0062944 -0.52847505 0.47883573 1.6848252 0.67371416 -2.0893137 -0.7343878 -0.79287446 2.0375028 0.48699751 -0.93500453 -2.0031848 2.322408 -0.51595604 3.6977654 0.61460733 -0.45709205 0.8040744 0.95085895 -1.8218127 0.16961975 0.5443616 1.1926467 -1.2790952 1.1822529 -0.21218035 -2.2312338 -1.1447183 -0.79047483 0.10402972 -0.7408298 1.63416 -1.2765864 2.3342605 0.09911849 4.3244905 -0.16401583 -0.9658973 0.34892058 0.64795893 3.0883322 -0.26599053 1.1917213 1.3454026 -0.34176245 -0.7140257 1.2478436 -1.6407396 -4.2500086 1.6887451 -0.03912173 -0.83205354 -0.014143644 1.4402764 -1.2150588 -2.554291 0.818349 0.6350147 4.022009 1.0393171 -0.68526775 -1.2744031 0.6443145 1.7640544 2.3470595 1.1183836 0.85245764 -0.04085683 0.23519802 2.3621922 -1.1000818 0.6389023 2.8548098 -0.5284765 -0.8588419 0.8003913 0.92026794 0.70129764 2.1918507 -0.9400109 0.62141997 1.3300132 1.4500303 -1.488122 -1.6656266 3.0598788 -1.8656057 -0.84799397
gryphon -0.24266772 -1.4580714 1.9555441 -1.2895547 0.4757632 2.5264168 -2.0791113 -0.6987493 1.5690978 -0.32399282 1.7510738 -1.6167616 1.5603855 1.4495429 1.2634768 -1.4402181 0.42928687 0.5096715 -1.6690137 -1.8725021 1.3486038 -1.1525196 -1.2079467 -2.1009855 1.5370327 -0.5307888 -0.84821874 -0.3519909 1.751652 1.9255044 0.16993508 0.8643662 -2.2217433 -0.5474739 -0.015745666 -0.13245466 0.55947036 -0.43726873 2.0431514 -1.5259132 -1.0212672 -2.4001796 -0.26128784 -1.3648164 1.598801 1.0094839 -1.9436724 1.892856 1.3307215 0.26756394 0.35469723 2.2979617 -0.64313906 -0.7446608 1.1132929 -1.609818 -1.2505778 -0.72164106 1.5308857 -2.0063307 0.010500303 -0.78340065 -1.5145372 0.75895834 3.1912665 -0.77336484 -1.7843912 0.6826737 -0.9741105 -1.2874925 0.42997617 1.3091261 -0.5616861 -0.11817613 -1.6081398 0.20772442 -2.426126 -1.0458583 0.117469534 1.1843085 1.1842412 1.6781183 0.24843453 0.57746196 -0.08205346 0.6555795 0.77001095 -0.6363375 1.2227919 0.080908045 -0.44525728 -0.6750682 0.32921538 -1.7692925 0.03942159 -0.7524515 -0.32255283 1.1146886 -0.6303095 0.4682633
are -0.59873945 -1.3712072 -1.7199066 -2.3323405 0.430156 -3.1309123 0.79924315 -0.4775324 1.9280275 0.09693274 0.6548469 -2.5304112 -3.4341357 2.8326821 1.3277626 0.217941 1.077582 2.5630019 -0.6028529 0.51949275 -0.590157 -2.05359 1.6192652 -3.2246826 1.580326 -1.2063855 -1.8215219 0.6807629 0.25029054 -0.022288881 -0.23838884 -0.2349231 0.26526797 1.1463658 -0.51465297 -0.82786083 -0.50289285 3.0525742 -0.23143362 0.6640649 -2.9862463 -0.31013983 1.4320503 -0.48015076 2.4406412 -2.2276244 3.0934012 -0.67308825 0.21592185 1.1425725 -0.7207837 -2.1093905 0.12769987 -0.5618515 0.7420308 -1.322088 -0.0820458 -0.29362145 -2.339343 1.0194165 1.9180162 -2.923519 2.4217002 -0.7191698 0.7233309 1.5678895 2.0709562 0.08819066 0.19271363 -1.9851589 1.0790648 1.1599156 -0.69979715 -1.0577264 -0.04825922 -0.44347715 0.19649026 0.48851728 -1.7774683 -3.205724 -0.64823014 -1.587014 -4.050201 2.8209298 0.6861903 0.23606534 -1.9316236 -3.9786677 0.572841 0.8655103 1.6970588 -1.0406897 0.64792055 1.7440515 2.4001935 -1.7925254 0.5842585 -1.5492828 -1.4935973 -0.112974055
think 2.7434018 1.6604434 -0.17946897 1.8417403 -1.2506957 0.9137426 -1.1330554 0.9877199 0.15890704 -1.7966542 -0.29874077 1.3728412 0.57968956 -0.19062972 0.75990456 -0.7533318 -1.0445368 -1.032521 0.4187179 -0.33976513 -0.8019305 0.95498145 0.68947345 1.3077062 -0.8412217 -0.1983933 0.22128515 0.29762053 -0.14948942 1.1087366 -0.52208894 -1.1635859 -0.46712068 -0.57346123 -0.940198 0.41539305 -0.2808135 -0.9205894 -0.7209387 -1.5343965 0.6350283 -0.4507798 2.1209738 0.381614 -0.6081546 1.0473267 -1.6786411 1.3281151 0.500182 1.2877258 0.8043546 -1.2845051 -2.0664299 -1.0032865 -1.149055 1.2402575 0.21283957 -1.1211661 -2.4622145 -0.53979176 -0.43413737 -1.9814255 -0.8315035 0.46919024 0.8644414 0.5371114 2.3346024 0.9634371 1.3210453 0.37995058 1.2371182 1.7879343 -0.41084987 -2.1438084 1.3864 -0.40312555 -0.30255568 -0.013699081 1.1941333 1.7235477 -1.0964539 0.91603976 -1.8133061 2.0551257 -0.061997212 1.4466181 -0.08207517 -0.41387248 -0.21079257 -1.6486291 0.8198577 -1.8792386 1.0456475 0.082519725 -1.7151537 1.2249464 -0.5864812 0.635171 0.99821275 -0.6516998
just -0.21734342 -0.080092676 0.07687391 -1.0831646 -0.2433535 2.176844 -0.06284769 -1.5608398 1.3895159 0.15903002 -0.8376039 -1.5148295 -1.1920171 -2.1031451 0.30036083 1.4398117 -0.50842977 1.5678169 -3.0103261 -1.71345 -0.7936632 -1.7944003 -2.2032692 0.22621663 -0.48526058 -0.44446144 0.32010308 0.7688906 -0.17751509 -1.7193049 0.9418779 -1.3369406 1.1682836 -0.24839331 0.27099714 0.92884904 -0.21805796 -0.3291252 2.431016 -2.8241022 1.9452803 -0.37348807 -0.46461743 1.1763405 0.50459164 -0.82060677 -1.5653628 -0.8888119 -2.2729802 1.019907 -2.04236 0.5321909 0.42937863 1.9851153 -0.3860995 1.4339031 -0.46490714 -2.9878485 -0.36153725 -0.11720882 -1.5784295 -1.0045726 0.49480647 -0.53832614 -0.09712079 -0.52802914 -0.83648276 1.1786124 1.4548868 -0.44202408 -3.7826588 -1.2971112 0.4065186 -0.80292714 -0.10594066 1.314486 0.45572883 -0.26791242 -2.2065418 0.5785295 -1.6628588 1.0720699 -1.1203079 4.4550533 -0.78793526 1.8499173 -1.2144405 2.8151076 0.09359242 0.3549756 1.1046777 0.7184284 0.11017952 0.43324432 -0.8773577 -0.97616136 0.27725413 -0.1503039 -1.3964577 -0.2911116
their -0.6286737 0.41075644 -1.4558265 -0.5896742 -1.0456619 -0.22056903 -1.3714246 1.0219687 1.2145082 2.4783757 0.6039432 -0.55358195 -1.8252943 2.6852076 -0.003532004 -0.26057267 0.93615943 -0.2648991 -0.79421145 -1.363523 -0.72469693 -4.5981054 -0.76372087 2.2028124 -2.3220437 -3.0864856 2.0418267 1.0352697 -0.33157286 1.4835682 -0.6888742 0.48338872 -1.4525706 -1.0411519 -0.22842899 3.0450096 -1.8395128 -0.98510975 1.4905884 -1.9063478 -2.960493 -1.155113 0.24127242 -1.2235641 -1.6525714 1.8109545 4.0788774 -2.5314891 1.3442395 2.7283275 3.1594777 1.4171103 5.491387 3.240503 2.6131864 -2.4073722 -1.3904098 -1.3116175 0.042261004 3.1730812 3.1725743 3.4343565 3.1704152 -0.21106851 0.030647269 -3.2922015 -0.36052892 -2.262162 0.80219525 -3.7801416 1.5915903 3.4915216 -0.11639793 2.3621724 2.5031207 -1.934186 2.1819997 0.9113903 0.17415126 -1.40482 0.70369494 -0.66214836 -0.44142616 0.47276324 1.8085997 -1.173518 -1.9191618 -0.5773312 -3.548024 1.5868053 0.542589 -1.2807239 0.74832666 -1.0486935 3.0300279 2.7303357 -1.2882265 -0.10514829 3.4779084 3.6678967
rabbit 0.9764264 -0.57933676 0.81789696 0.10290395 -0.4824798 -0.06397477 0.15985298 -1.0462567 -0.09754693 0.13541414 3.3402088 1.6354771 3.3474975 1.5670639 1.2347089 -2.2976213 -0.17038687 -0.31467897 -0.29435864 0.6140994 1.4607304 -3.5865493 1.1791867 -0.4934051 -0.020726645 1.04033 0.82051563 0.8963277 3.0469239 -0.48042133 0.38689357 0.42142627 -1.9694626 -3.29286 0.7424994 0.15183681 -0.26825568 1.6191901 0.46243492 -0.68242174 -2.0718215 -1.6247194 -0.9888075 -0.21996708 -0.60382825 -0.9918723 0.7141639 2.2529714 1.986704 -0.7445251 -3.888318 2.7760022 -2.6586027 0.4664135 1.0043093 -0.97749645 0.9315586 1.2189019 0.30057418 -0.91774476 -3.306877 0.49778542 -1.792257 0.42579815 1.5784832 -0.9113226 -2.1137815 1.5462984 0.15043813 1.4246418 -1.7173513 -2.044708 -0.4662123 0.9539815 -0.6480732 -0.86403716 -2.0344837 -0.82310003 -2.6309924 -0.70597064 1.7637254 1.617502 -0.1161452 -1.6833305 1.2413396 1.1343753 -1.7579631 1.8667127 2.6970818 2.593945 -0.22779879 -0.08599319 -0.76709074 -0.3281125 -0.4790313 1.5032862 1.6161798 1.0213133 0.41395864 1.2974545
